{"learner":{"attributes":{},"feature_names":[],"feature_types":[],"gradient_booster":{"model":{"gbtree_model_param":{"num_parallel_tree":"1","num_trees":"30"},"iteration_indptr":[0,1,2,3,4,5,6,7,8,9,10,11,12,13,14,15,16,17,18,19,20,21,22,23,24,25,26,27,28,29,30],"tree_info":[0,0,0,0,0,0,0,0,0,0,0,0,0,0,0,0,0,0,0,0,0,0,0,0,0,0,0,0,0,0],"trees":[{"base_weights":[-4.8090976E-1,-5.794293E-1,1.1498247E0,-5.286026E-2,-4.4667384E-1,2.3612808E-2,1.1127943E-1,-4.1960746E-2,-9.779423E-3],"categories":[],"categories_nodes":[],"categories_segments":[],"categories_sizes":[],"default_left":[0,0,0,0,0,0,0,0,0],"id":0,"left_children":[1,3,5,-1,7,-1,-1,-1,-1],"loss_changes":[1.6833244E1,1.8918877E0,1.6325254E0,0E0,2.583727E0,0E0,0E0,0E0,0E0],"parents":[2147483647,0,0,1,1,2,2,4,4],"right_children":[2,4,6,-1,8,-1,-1,-1,-1],"split_conditions":[1E0,1E0,1E0,-5.286026E-2,1E0,2.3612808E-2,1.1127943E-1,-4.1960746E-2,-9.779423E-3],"split_indices":[2,0,3,0,3,0,0,0,0],"split_type":[0,0,0,0,0,0,0,0,0],"sum_hessian":[9.962909E1,9.456094E1,5.0681467E0,3.867796E1,5.5882984E1,2.400701E0,2.6674457E0,3.6677376E1,1.9205608E1],"tree_param":{"num_deleted":"0","num_feature":"6","num_nodes":"9","size_leaf_vector":"1"}},{"base_weights":[-4.9614677E-1,-5.9618104E-1,1.1478978E0,-4.781313E-2,-3.9240763E-1,9.131559E-3,1.1786972E-1,-4.5304153E-2,-1.8235983E-2],"categories":[],"categories_nodes":[],"categories_segments":[],"categories_sizes":[],"default_left":[0,0,0,0,0,0,0,0,0],"id":1,"left_children":[1,3,5,-1,7,-1,-1,-1,-1],"loss_changes":[1.7027864E1,1.4017372E0,3.0749211E0,0E0,8.578577E-1,0E0,0E0,0E0,0E0],"parents":[2147483647,0,0,1,1,2,2,4,4],"right_children":[2,4,6,-1,8,-1,-1,-1,-1],"split_conditions":[1E0,1E0,1E0,-4.781313E-2,1E0,9.131559E-3,1.1786972E-1,-4.5304153E-2,-1.8235983E-2],"split_indices":[2,3,3,0,0,0,0,0,0],"split_type":[0,0,0,0,0,0,0,0,0],"sum_hessian":[9.837634E1,9.333463E1,5.0417094E0,6.3790356E1,2.9544275E1,2.1684897E0,2.8732195E0,8.7444935E0,2.0799782E1],"tree_param":{"num_deleted":"0","num_feature":"6","num_nodes":"9","size_leaf_vector":"1"}},{"base_weights":[-4.8808292E-1,-6.444066E-1,-1.3071163E-1,-7.4198943E-1,-3.486855E-1,-4.3110304E-2,7.770035E-2,-8.841681E-1,-6.093228E-1,-1.0023878E-1,-6.6506036E-2,-1.4373526E-1,8.924735E-1,-1.0230133E-2,-6.422185E-2,-6.044066E-2,-5.036084E-1,-3.895766E-1,3.5849866E-1,-3.862081E-1,1.4218876E-1,8.382664E-2,-8.151401E-3,2.8837422E-2,-3.9552134E-2,2.6335816E-3,-3.4061726E-2,5.1461242E-2,-4.3118973E-3,-1.205868E-2,-5.682536E-2,2.5603062E-2,-1.4241442E-2],"categories":[],"categories_nodes":[],"categories_segments":[],"categories_sizes":[],"default_left":[0,0,0,0,0,0,0,0,0,0,0,0,0,0,0,0,0,0,0,0,0,0,0,0,0,0,0,0,0,0,0,0,0],"id":2,"left_children":[1,3,5,7,9,-1,11,13,15,17,-1,19,21,-1,-1,-1,23,25,27,29,31,-1,-1,-1,-1,-1,-1,-1,-1,-1,-1,-1,-1],"loss_changes":[5.287571E0,1.6643314E0,3.1333437E0,3.8964653E-1,2.657102E0,0E0,4.1397276E0,3.9510918E-1,3.355713E-1,2.0182502E0,0E0,1.3266752E0,1.6444724E0,0E0,0E0,0E0,1.5066643E0,3.9789438E-1,9.9389935E-1,7.884321E-1,7.813643E-1,0E0,0E0,0E0,0E0,0E0,0E0,0E0,0E0,0E0,0E0,0E0,0E0],"parents":[2147483647,0,0,1,1,2,2,3,3,4,4,6,6,7,7,8,8,9,9,11,11,12,12,16,16,17,17,18,18,19,19,20,20],"right_children":[2,4,6,8,10,-1,12,14,16,18,-1,20,22,-1,-1,-1,24,26,28,30,32,-1,-1,-1,-1,-1,-1,-1,-1,-1,-1,-1,-1],"split_conditions":[1E0,6.4E1,1E0,1E0,7.4E1,-4.3110304E-2,6.7E1,3.6E1,4.6E1,6.9E1,-6.6506036E-2,5.8E1,7.3E1,-1.0230133E-2,-6.422185E-2,-6.044066E-2,4.8E1,6.5E1,1E0,5.5E1,6.4E1,8.382664E-2,-8.151401E-3,2.8837422E-2,-3.9552134E-2,2.6335816E-3,-3.4061726E-2,5.1461242E-2,-4.3118973E-3,-1.205868E-2,-5.682536E-2,2.5603062E-2,-1.4241442E-2],"split_indices":[3,1,0,0,1,0,1,1,1,1,0,1,1,0,0,0,1,1,0,1,1,0,0,0,0,0,0,0,0,0,0,0,0],"split_type":[0,0,0,0,0,0,0,0,0,0,0,0,0,0,0,0,0,0,0,0,0,0,0,0,0,0,0,0,0,0,0,0,0],"sum_hessian":[9.515586E1,6.564E1,2.9515867E1,4.8219364E1,1.7420631E1,8.281901E0,2.1233965E1,2.054101E1,2.7678356E1,1.3153442E1,4.2671885E0,1.73439E1,3.8900635E0,1.119107E0,1.9421902E1,6.0258417E0,2.1652515E1,8.158454E0,4.9949884E0,9.195274E0,8.148627E0,2.8434167E0,1.0466468E0,1.0024635E0,2.0650051E1,1.6232269E0,6.535227E0,2.238214E0,2.7567744E0,7.053996E0,2.141278E0,4.9127183E0,3.2359092E0],"tree_param":{"num_deleted":"0","num_feature":"6","num_nodes":"33","size_leaf_vector":"1"}},{"base_weights":[-4.9267069E-1,7.8510165E-1,-6.3006496E-1,-1.642376E-1,1.2639654E0,-3.602825E-1,-7.834671E-1,-3.239018E-2,2.4898507E-2,5.7079634E-3,1.3238432E-1,-5.6768245E-1,1.2740532E-1,-9.328719E-1,-4.6165515E-2,-7.3383504E-1,-2.8505585E-1,-2.486143E-1,7.9389715E-1,-8.831528E-3,-6.775951E-2,-7.7573196E-3,-6.699472E-2,2.1632409E-2,-4.1253593E-2,2.654015E-3,-5.31467E-2,8.6056806E-2,3.6521803E-3],"categories":[],"categories_nodes":[],"categories_segments":[],"categories_sizes":[],"default_left":[0,0,0,0,0,0,0,0,0,0,0,0,0,0,0,0,0,0,0,0,0,0,0,0,0,0,0,0,0],"id":3,"left_children":[1,3,5,7,9,11,13,-1,-1,-1,-1,15,17,19,-1,21,23,25,27,-1,-1,-1,-1,-1,-1,-1,-1,-1,-1],"loss_changes":[1.7355705E1,4.648925E0,3.329525E0,8.1027615E-1,4.747422E0,3.459437E0,3.9940262E-1,0E0,0E0,0E0,0E0,9.027424E-1,2.9061606E0,5.1337814E-1,0E0,1.8795238E0,2.0624576E0,1.1512084E0,1.2721469E0,0E0,0E0,0E0,0E0,0E0,0E0,0E0,0E0,0E0,0E0],"parents":[2147483647,0,0,1,1,2,2,3,3,4,4,5,5,6,6,11,11,12,12,13,13,15,15,16,16,17,17,18,18],"right_children":[2,4,6,8,10,12,14,-1,-1,-1,-1,16,18,20,-1,22,24,26,28,-1,-1,-1,-1,-1,-1,-1,-1,-1,-1],"split_conditions":[1.24E2,1E0,1.9E2,1.01E2,1E0,1E0,1E0,-3.239018E-2,2.4898507E-2,5.7079634E-3,1.3238432E-1,1.67E2,1.73E2,1.94E2,-4.6165515E-2,1.43E2,1.75E2,1.64E2,1.83E2,-8.831528E-3,-6.775951E-2,-7.7573196E-3,-6.699472E-2,2.1632409E-2,-4.1253593E-2,2.654015E-3,-5.31467E-2,8.6056806E-2,3.6521803E-3],"split_indices":[5,0,5,5,3,3,0,0,0,0,0,5,5,5,0,5,5,5,5,0,0,0,0,0,0,0,0,0,0],"split_type":[0,0,0,0,0,0,0,0,0,0,0,0,0,0,0,0,0,0,0,0,0,0,0,0,0,0,0,0,0],"sum_hessian":[9.5042244E1,8.769675E0,8.627257E1,3.160689E0,5.608987E0,3.24872E1,5.3785362E1,2.077874E0,1.082815E0,2.3357718E0,3.2732148E0,2.2678602E1,9.808599E0,2.1430397E1,3.2354965E1,1.32768345E1,9.401768E0,6.6716094E0,3.1369903E0,1.085664E0,2.0344734E1,3.897047E0,9.379787E0,3.179117E0,6.222651E0,4.866563E0,1.8050466E0,1.5622703E0,1.57472E0],"tree_param":{"num_deleted":"0","num_feature":"6","num_nodes":"29","size_leaf_vector":"1"}},{"base_weights":[-4.5134676E-1,-7.39332E-1,4.747822E-1,-5.453989E-2,1.3429197E-2,2.5964332E-1,1.2153732E-1,4.1814405E-3,2.7129222E-2],"categories":[],"categories_nodes":[],"categories_segments":[],"categories_sizes":[],"default_left":[0,0,0,0,0,0,0,0,0],"id":4,"left_children":[1,3,5,-1,-1,7,-1,-1,-1],"loss_changes":[2.5011446E1,2.7784615E0,5.666468E0,0E0,0E0,4.9933565E-1,0E0,0E0,0E0],"parents":[2147483647,0,0,1,1,2,2,5,5],"right_children":[2,4,6,-1,-1,8,-1,-1,-1],"split_conditions":[1E0,1E0,1E0,-5.453989E-2,1.3429197E-2,1E0,1.2153732E-1,4.1814405E-3,2.7129222E-2],"split_indices":[4,2,2,0,0,0,0,0,0],"split_type":[0,0,0,0,0,0,0,0,0],"sum_hessian":[9.1461044E1,6.992053E1,2.1540506E1,6.721046E1,2.7100754E0,1.9432228E1,2.1082776E0,8.1548395E0,1.127739E1],"tree_param":{"num_deleted":"0","num_feature":"6","num_nodes":"9","size_leaf_vector":"1"}},{"base_weights":[-4.5772445E-1,-5.7293427E-1,1.1858261E0,-4.7345817E-2,-3.5384408E-1,3.1349648E-2,1.0251438E-1,-4.7921732E-2,-1.4159437E-2],"categories":[],"categories_nodes":[],"categories_segments":[],"categories_sizes":[],"default_left":[0,0,0,0,0,0,0,0,0],"id":5,"left_children":[1,3,5,-1,7,-1,-1,-1,-1],"loss_changes":[1.792037E1,1.7041607E0,6.3769627E-1,0E0,1.3454525E0,0E0,0E0,0E0,0E0],"parents":[2147483647,0,0,1,1,2,2,4,4],"right_children":[2,4,6,-1,8,-1,-1,-1,-1],"split_conditions":[1E0,1E0,1E0,-4.7345817E-2,1E0,3.1349648E-2,1.0251438E-1,-4.7921732E-2,-1.4159437E-2],"split_indices":[2,3,3,0,0,0,0,0,0],"split_type":[0,0,0,0,0,0,0,0,0],"sum_hessian":[9.0051956E1,8.476172E1,5.290233E0,5.6160595E1,2.8601128E1,2.1647024E0,3.1255307E0,7.8826337E0,2.0718493E1],"tree_param":{"num_deleted":"0","num_feature":"6","num_nodes":"9","size_leaf_vector":"1"}},{"base_weights":[-3.9911273E-1,5.315714E-1,-5.656012E-1,-8.6968884E-2,1.1118035E0,-2.73061E-1,-7.450883E-1,-5.894137E-2,5.230725E-1,1.473205E0,-6.0998724E-4,-7.163099E-1,2.4840894E-1,-6.655228E-2,-6.0877806E-1,7.40981E-2,-2.3234751E-2,2.5698239E-2,1.1594237E-1,-6.78778E-2,-4.909749E-1,-2.1721299E-1,1.0158998E0,7.3715933E-3,-6.504268E-1,-9.622265E-3,-4.32931E-2,2.607567E-2,-2.329835E-2,1.18150085E-1,3.1772006E-2,-6.1691064E-2,-3.145957E-2],"categories":[],"categories_nodes":[],"categories_segments":[],"categories_sizes":[],"default_left":[0,0,0,0,0,0,0,0,0,0,0,0,0,0,0,0,0,0,0,0,0,0,0,0,0,0,0,0,0,0,0,0,0],"id":6,"left_children":[1,3,5,7,9,11,13,-1,15,17,-1,19,21,-1,23,-1,-1,-1,-1,-1,25,27,29,-1,31,-1,-1,-1,-1,-1,-1,-1,-1],"loss_changes":[1.3586557E1,4.9513464E0,3.640993E0,3.8833396E0,2.8685827E0,6.977932E0,6.7705345E-1,0E0,2.5265555E0,4.731121E-1,0E0,4.4653416E-1,5.3164315E0,0E0,9.524431E-1,0E0,0E0,0E0,0E0,0E0,3.917935E-1,7.852975E-1,1.3338294E0,0E0,9.1366386E-1,0E0,0E0,0E0,0E0,0E0,0E0,0E0,0E0],"parents":[2147483647,0,0,1,1,2,2,3,3,4,4,5,5,6,6,8,8,9,9,11,11,12,12,14,14,20,20,21,21,22,22,24,24],"right_children":[2,4,6,8,10,12,14,-1,16,18,-1,20,22,-1,24,-1,-1,-1,-1,-1,26,28,30,-1,32,-1,-1,-1,-1,-1,-1,-1,-1],"split_conditions":[1.39E2,6.1E1,1.94E2,1E0,7.2E1,1.72E2,5.3E1,-5.894137E-2,9.6E1,9.6E1,-6.0998724E-4,1E0,6.4E1,-6.655228E-2,5.4E1,7.40981E-2,-2.3234751E-2,2.5698239E-2,1.1594237E-1,-6.78778E-2,5.5E1,1.77E2,1E0,7.3715933E-3,1E0,-9.622265E-3,-4.32931E-2,2.607567E-2,-2.329835E-2,1.18150085E-1,3.1772006E-2,-6.1691064E-2,-3.145957E-2],"split_indices":[5,1,5,0,1,5,1,0,5,5,0,0,1,0,1,0,0,0,0,0,1,5,0,0,0,0,0,0,0,0,0,0,0],"split_type":[0,0,0,0,0,0,0,0,0,0,0,0,0,0,0,0,0,0,0,0,0,0,0,0,0,0,0,0,0,0,0,0,0],"sum_hessian":[8.474414E1,1.25266E1,7.2217545E1,6.4746227E0,6.0519776E0,2.841925E1,4.3798294E1,2.7234862E0,3.7511365E0,4.338064E0,1.7139133E0,1.5159801E1,1.325945E1,1.5076575E1,2.8721718E1,2.1601813E0,1.5909553E0,1.0429672E0,3.2950969E0,5.581035E0,9.578765E0,8.698949E0,4.560502E0,1.4986246E0,2.7223093E1,3.0898023E0,6.488962E0,1.0617363E0,7.6372123E0,1.1647111E0,3.3957908E0,1.1094937E1,1.6128157E1],"tree_param":{"num_deleted":"0","num_feature":"6","num_nodes":"33","size_leaf_vector":"1"}},{"base_weights":[-4.618275E-1,-7.4165034E-1,3.3865356E-1,-5.4026563E-2,4.583974E-2,-2.616075E-1,9.2939925E-1,-1.56176975E-2,2.2010844E-2,-5.016218E-1,6.806474E-2,1.2072662E0,-4.722725E-2,-2.4606802E-1,-5.1747885E-2,4.032678E-2,9.739775E-2,-3.4917895E-2,1.7285207E-2],"categories":[],"categories_nodes":[],"categories_segments":[],"categories_sizes":[],"default_left":[0,0,0,0,0,0,0,0,0,0,0,0,0,0,0,0,0,0,0],"id":7,"left_children":[1,3,5,-1,7,9,11,-1,-1,13,-1,15,-1,17,-1,-1,-1,-1,-1],"loss_changes":[1.9697365E1,1.5705605E0,8.460621E0,0E0,3.1058222E-1,4.1231294E0,6.1181927E0,0E0,0E0,4.8219395E-1,0E0,4.1878986E-1,0E0,9.665467E-1,0E0,0E0,0E0,0E0,0E0],"parents":[2147483647,0,0,1,1,2,2,4,4,5,5,6,6,9,9,11,11,13,13],"right_children":[2,4,6,-1,8,10,12,-1,-1,14,-1,16,-1,18,-1,-1,-1,-1,-1],"split_conditions":[1E0,1E0,6.1E1,-5.4026563E-2,6.4E1,1E0,7.3E1,-1.56176975E-2,2.2010844E-2,5.5E1,6.806474E-2,6.3E1,-4.722725E-2,5.1E1,-5.1747885E-2,4.032678E-2,9.739775E-2,-3.4917895E-2,1.7285207E-2],"split_indices":[4,2,1,0,1,2,1,0,0,1,0,1,0,1,0,0,0,0,0],"split_type":[0,0,0,0,0,0,0,0,0,0,0,0,0,0,0,0,0,0,0],"sum_hessian":[8.5816154E1,6.3642307E1,2.2173845E1,6.131414E1,2.3281689E0,1.1274697E1,1.0899147E1,1.2479554E0,1.0802133E0,9.935632E0,1.3390654E0,9.500748E0,1.3983996E0,5.768076E0,4.167556E0,3.078134E0,6.4226136E0,3.805295E0,1.9627812E0],"tree_param":{"num_deleted":"0","num_feature":"6","num_nodes":"19","size_leaf_vector":"1"}},{"base_weights":[-3.4898478E-1,-6.2116456E-1,3.711278E-1,-5.3277636E-1,-6.293871E-2,1.021528E0,5.3267684E-3,-6.010833E-1,2.6535679E-2,1.8608488E-2,8.3122686E-2,-5.870668E-1,4.202102E-1,-4.368516E-1,-5.0915234E-2,1.3000802E-3,-5.4145787E-2,8.324836E-2,-1.210422E-1,-4.8479732E-2,9.169257E-3,-4.538165E-2,3.5675507E-2],"categories":[],"categories_nodes":[],"categories_segments":[],"categories_sizes":[],"default_left":[0,0,0,0,0,0,0,0,0,0,0,0,0,0,0,0,0,0,0,0,0,0,0],"id":8,"left_children":[1,3,5,7,-1,9,11,13,-1,-1,-1,15,17,19,-1,-1,-1,-1,21,-1,-1,-1,-1],"loss_changes":[1.6861843E1,1.043047E0,5.6809707E0,3.308525E0,0E0,7.625475E-1,4.2534275E0,6.445217E-1,0E0,0E0,0E0,8.1969213E-1,4.377457E0,3.382917E0,0E0,0E0,0E0,0E0,2.6173072E0,0E0,0E0,0E0,0E0],"parents":[2147483647,0,0,1,1,2,2,3,3,5,5,6,6,7,7,11,11,12,12,13,13,18,18],"right_children":[2,4,6,8,-1,10,12,14,-1,-1,-1,16,18,20,-1,-1,-1,-1,22,-1,-1,-1,-1],"split_conditions":[1E0,2.53E2,1.33E2,2.41E2,-6.293871E-2,6.5E1,1.71E2,1.9E2,2.6535679E-2,1.8608488E-2,8.3122686E-2,1.43E2,1.94E2,1.72E2,-5.0915234E-2,1.3000802E-3,-5.4145787E-2,8.324836E-2,2.31E2,-4.8479732E-2,9.169257E-3,-4.538165E-2,3.5675507E-2],"split_indices":[4,5,5,5,0,5,5,5,0,0,0,5,5,5,0,0,0,0,5,0,0,0,0],"split_type":[0,0,0,0,0,0,0,0,0,0,0,0,0,0,0,0,0,0,0,0,0,0,0],"sum_hessian":[8.38536E1,6.095278E1,2.2900814E1,4.8459827E1,1.2492954E1,7.598313E0,1.5302502E1,4.539976E1,3.0600677E0,1.8365592E0,5.7617536E0,6.131949E0,9.170553E0,2.16726E1,2.3727161E1,1.6553042E0,4.476645E0,3.2935658E0,5.876987E0,1.4791768E1,6.8808317E0,3.1857367E0,2.6912503E0],"tree_param":{"num_deleted":"0","num_feature":"6","num_nodes":"23","size_leaf_vector":"1"}},{"base_weights":[-3.5829502E-1,-6.6166735E-1,4.1319674E-1,-7.038962E-1,1.22655645E-1,-1.5092437E-1,9.853715E-1,-5.3248562E-2,-4.7158757E-1,-2.648467E-2,4.6812616E-2,-4.3426582E-1,8.1350595E-2,1.2115537E0,-4.309577E-2,5.0096945E-3,-4.518405E-2,-1.6963977E-1,-3.9701175E-2,3.7240464E-2,1.423441E0,-3.2192104E-2,1.2516583E-2,1.3050744E-1,5.726E-2],"categories":[],"categories_nodes":[],"categories_segments":[],"categories_sizes":[],"default_left":[0,0,0,0,0,0,0,0,0,0,0,0,0,0,0,0,0,0,0,0,0,0,0,0,0],"id":9,"left_children":[1,3,5,7,9,11,13,-1,15,-1,-1,17,-1,19,-1,-1,-1,21,-1,-1,23,-1,-1,-1,-1],"loss_changes":[1.9507982E1,2.0527706E0,7.834259E0,3.865776E-1,1.3159258E0,5.288094E0,5.0746613E0,0E0,1.3428967E0,0E0,0E0,3.0128145E-1,0E0,7.993746E-1,0E0,0E0,0E0,6.08688E-1,0E0,0E0,5.1579E-1,0E0,0E0,0E0,0E0],"parents":[2147483647,0,0,1,1,2,2,3,3,4,4,5,5,6,6,8,8,11,11,13,13,17,17,20,20],"right_children":[2,4,6,8,10,12,14,-1,16,-1,-1,18,-1,20,-1,-1,-1,22,-1,-1,24,-1,-1,-1,-1],"split_conditions":[1E0,1E0,6.1E1,6.6E1,6.4E1,1E0,7.3E1,-5.3248562E-2,6.8E1,-2.648467E-2,4.6812616E-2,5.2E1,8.1350595E-2,6.3E1,-4.309577E-2,5.0096945E-3,-4.518405E-2,4.7E1,-3.9701175E-2,3.7240464E-2,6.7E1,-3.2192104E-2,1.2516583E-2,1.3050744E-1,5.726E-2],"split_indices":[4,2,1,1,1,2,1,0,1,0,0,1,0,1,0,0,0,1,0,0,1,0,0,0,0],"split_type":[0,0,0,0,0,0,0,0,0,0,0,0,0,0,0,0,0,0,0,0,0,0,0,0,0],"sum_hessian":[8.1181786E1,5.8371014E1,2.2810774E1,5.5486115E1,2.884897E0,1.1856946E1,1.0953828E1,4.275772E1,1.2728393E1,1.6647574E0,1.2201396E0,1.0302995E1,1.5539513E0,9.811051E0,1.1427763E0,3.2295845E0,9.498808E0,4.2054205E0,6.0975747E0,3.1665049E0,6.6445465E0,2.119839E0,2.0855815E0,2.6413913E0,4.003155E0],"tree_param":{"num_deleted":"0","num_feature":"6","num_nodes":"25","size_leaf_vector":"1"}},{"base_weights":[-3.7156984E-1,-3.5258632E-2,-4.740422E-2,-3.6976334E-1,4.049785E-1,4.610296E-1,-6.3240504E-1,3.5441667E-2,1.2263216E0,1.337616E0,-3.8002813E-1,-6.0403828E-2,-4.1769767E-1,3.1447792E-1,-3.5343006E-2,5.70759E-1,1.2886968E-1,1.9103914E-2,1.2722853E-1,-9.256046E-4,-4.502854E-2,-3.467334E-3,-4.6940785E-2,6.2373288E-2,-1.1124115E-2,1.0282531E-1,-2.7528165E-2],"categories":[],"categories_nodes":[],"categories_segments":[],"categories_sizes":[],"default_left":[0,0,0,0,0,0,0,0,0,0,0,0,0,0,0,0,0,0,0,0,0,0,0,0,0,0,0],"id":10,"left_children":[1,3,-1,5,7,9,11,13,15,17,19,-1,21,23,-1,25,-1,-1,-1,-1,-1,-1,-1,-1,-1,-1,-1],"loss_changes":[8.332652E0,6.005111E0,0E0,5.3356657E0,5.312056E0,5.028468E0,5.297084E-1,2.1489108E0,1.1435604E0,1.151053E0,3.6880434E-1,0E0,1.0142168E0,2.6855938E0,0E0,4.11423E0,0E0,0E0,0E0,0E0,0E0,0E0,0E0,0E0,0E0,0E0,0E0],"parents":[2147483647,0,0,1,1,3,3,4,4,5,5,6,6,7,7,8,8,9,9,10,10,12,12,13,13,15,15],"right_children":[2,4,-1,6,8,10,12,14,16,18,20,-1,22,24,-1,26,-1,-1,-1,-1,-1,-1,-1,-1,-1,-1,-1],"split_conditions":[1.9E2,6.2E1,-4.740422E-2,1.22E2,1.72E2,5.2E1,1.56E2,1.49E2,6.9E1,8.6E1,8.6E1,-6.0403828E-2,1.75E2,6.7E1,-3.5343006E-2,1.8E2,1.2886968E-1,1.9103914E-2,1.2722853E-1,-9.256046E-4,-4.502854E-2,-3.467334E-3,-4.6940785E-2,6.2373288E-2,-1.1124115E-2,1.0282531E-1,-2.7528165E-2],"split_indices":[5,1,0,5,5,1,5,5,1,5,5,0,5,1,0,5,0,0,0,0,0,0,0,0,0,0,0],"split_type":[0,0,0,0,0,0,0,0,0,0,0,0,0,0,0,0,0,0,0,0,0,0,0,0,0,0,0],"sum_hessian":[8.029877E1,3.876171E1,4.1537056E1,2.211681E1,1.6644901E1,5.1309958E0,1.6985815E1,1.2199348E1,4.4455523E0,2.223339E0,2.9076567E0,6.735579E0,1.0250236E1,8.320558E0,3.8787916E0,3.0844631E0,1.3610892E0,1.1782081E0,1.0451311E0,1.6536387E0,1.254018E0,4.660739E0,5.5894966E0,3.3536875E0,4.9668694E0,1.3256229E0,1.7588403E0],"tree_param":{"num_deleted":"0","num_feature":"6","num_nodes":"27","size_leaf_vector":"1"}},{"base_weights":[-3.50983E-1,-5.904631E-1,2.5856918E-1,-5.1620018E-2,-4.9009928E-1,-1.1865449E-3,6.582619E-1,-4.0951304E-2,-2.2680914E-2,-2.9420475E-2,6.896674E-2],"categories":[],"categories_nodes":[],"categories_segments":[],"categories_sizes":[],"default_left":[0,0,0,0,0,0,0,0,0,0,0],"id":11,"left_children":[1,3,5,-1,7,-1,9,-1,-1,-1,-1],"loss_changes":[1.1917985E1,4.9657822E-1,2.5912418E0,0E0,4.0235138E-1,0E0,3.7944703E0,0E0,0E0,0E0,0E0],"parents":[2147483647,0,0,1,1,2,2,4,4,6,6],"right_children":[2,4,6,-1,8,-1,10,-1,-1,-1,-1],"split_conditions":[1E0,1E0,1E0,-5.1620018E-2,1E0,-1.1865449E-3,1E0,-4.0951304E-2,-2.2680914E-2,-2.9420475E-2,6.896674E-2],"split_indices":[4,0,3,0,3,0,0,0,0,0,0],"split_type":[0,0,0,0,0,0,0,0,0,0,0],"sum_hessian":[7.959777E1,5.7168713E1,2.2429056E1,2.0622711E1,3.6546E1,1.3843748E1,8.585308E0,2.1650324E1,1.48956785E1,1.9308604E0,6.6544476E0],"tree_param":{"num_deleted":"0","num_feature":"6","num_nodes":"11","size_leaf_vector":"1"}},{"base_weights":[-3.5632077E-1,-6.2769705E-1,2.63147E-1,-5.8024943E-2,-4.4537E-1,-2.7697355E-1,7.512119E-1,-1.246196E-2,-5.559331E-1,3.2675166E-2,-5.2337265E-1,9.2249465E-1,-4.198936E-2,-4.192609E-2,3.7336323E-2,-2.8104465E-2,-5.3965695E-2,-6.565504E-2,5.3056194E-3,1.2659496E0,5.3661734E-1,-3.5385564E-2,8.517246E-2,5.133219E-2,-3.8019504E-2,4.0812183E-2,1.273335E-1,-2.1616263E-2,5.449021E-2],"categories":[],"categories_nodes":[],"categories_segments":[],"categories_sizes":[],"default_left":[0,0,0,0,0,0,0,0,0,0,0,0,0,0,0,0,0,0,0,0,0,0,0,0,0,0,0,0,0],"id":12,"left_children":[1,3,5,-1,7,9,11,13,15,-1,17,19,-1,-1,-1,21,-1,-1,23,25,27,-1,-1,-1,-1,-1,-1,-1,-1],"loss_changes":[1.3402699E1,1.65065E0,6.7172666E0,0E0,1.47893E0,2.5262194E0,3.6173925E0,2.6686602E0,2.7820225E0,0E0,2.158184E0,9.302435E-1,0E0,0E0,0E0,5.4814706E0,0E0,0E0,2.5193398E0,1.0886269E0,1.7644391E0,0E0,0E0,0E0,0E0,0E0,0E0,0E0,0E0],"parents":[2147483647,0,0,1,1,2,2,4,4,5,5,6,6,7,7,8,8,10,10,11,11,15,15,18,18,19,19,20,20],"right_children":[2,4,6,-1,8,10,12,14,16,-1,18,20,-1,-1,-1,22,-1,-1,24,26,28,-1,-1,-1,-1,-1,-1,-1,-1],"split_conditions":[1E0,5.7E1,6.1E1,-5.8024943E-2,6.1E1,9.5E1,7.3E1,1.92E2,1.82E2,3.2675166E-2,1.65E2,6.5E1,-4.198936E-2,-4.192609E-2,3.7336323E-2,1.73E2,-5.3965695E-2,-6.565504E-2,1.94E2,6.3E1,9.9E1,-3.5385564E-2,8.517246E-2,5.133219E-2,-3.8019504E-2,4.0812183E-2,1.273335E-1,-2.1616263E-2,5.449021E-2],"split_indices":[4,1,1,0,1,5,1,5,5,0,5,1,0,0,0,5,0,0,5,1,5,0,0,0,0,0,0,0,0],"split_type":[0,0,0,0,0,0,0,0,0,0,0,0,0,0,0,0,0,0,0,0,0,0,0,0,0,0,0,0,0],"sum_hessian":[7.7743744E1,5.4051567E1,2.3692179E1,2.4008022E1,3.0043547E1,1.1451643E1,1.2240537E1,6.338393E0,2.3705153E1,2.6271348E0,8.824508E0,1.1144838E1,1.0956979E0,3.0085394E0,3.3298538E0,7.188477E0,1.6516676E1,4.512212E0,4.3122964E0,4.6898627E0,6.454976E0,5.625146E0,1.5633312E0,1.707988E0,2.6043084E0,3.0178316E0,1.6720309E0,1.3740495E0,5.0809264E0],"tree_param":{"num_deleted":"0","num_feature":"6","num_nodes":"29","size_leaf_vector":"1"}},{"base_weights":[-3.2445335E-1,3.8723603E-2,-6.7312723E-1,9.12064E-2,-3.212247E-2,-8.467507E-1,-5.2772516E-1,-3.527176E-1,2.949541E-1,-1.01627065E-2,-6.254759E-2,-6.1071706E-1,1.98118E-2,1.2044776E-1,-6.33495E-1,-7.214735E-2,1.0386679E0,-6.900801E-2,-3.5713917E-1,7.900403E-2,-2.9525165E-2,-6.594617E-2,-2.3936564E-2,3.990887E-2,-3.8283132E-2,9.1724046E-2,2.7107922E-2,1.2216802E-2,-3.888113E-2],"categories":[],"categories_nodes":[],"categories_segments":[],"categories_sizes":[],"default_left":[0,0,0,0,0,0,0,0,0,0,0,0,0,0,0,0,0,0,0,0,0,0,0,0,0,0,0,0,0],"id":13,"left_children":[1,3,5,-1,7,9,11,13,15,-1,-1,17,-1,19,21,23,25,-1,27,-1,-1,-1,-1,-1,-1,-1,-1,-1,-1],"loss_changes":[9.617946E0,3.4495947E0,5.301266E-1,0E0,3.984291E0,3.9492893E-1,1.7685761E0,2.6195018E0,5.224519E0,0E0,0E0,1.7244043E0,0E0,4.8326073E0,7.730875E-1,4.447567E0,6.071954E-1,0E0,1.6355265E0,0E0,0E0,0E0,0E0,0E0,0E0,0E0,0E0,0E0,0E0],"parents":[2147483647,0,0,1,1,2,2,4,4,5,5,6,6,7,7,8,8,11,11,13,13,14,14,15,15,16,16,18,18],"right_children":[2,4,6,-1,8,10,12,14,16,-1,-1,18,-1,20,22,24,26,-1,28,-1,-1,-1,-1,-1,-1,-1,-1,-1,-1],"split_conditions":[1.9E2,4.4E1,1E0,9.12064E-2,6.1E1,1.95E2,7.1E1,5.2E1,1.72E2,-1.01627065E-2,-6.254759E-2,2.18E2,1.98118E-2,1.16E2,1.47E2,1.33E2,1.82E2,-6.900801E-2,2.33E2,7.900403E-2,-2.9525165E-2,-6.594617E-2,-2.3936564E-2,3.990887E-2,-3.8283132E-2,9.1724046E-2,2.7107922E-2,1.2216802E-2,-3.888113E-2],"split_indices":[5,5,0,0,1,5,1,1,5,0,0,5,0,5,5,5,5,0,5,0,0,0,0,0,0,0,0,0,0],"split_type":[0,0,0,0,0,0,0,0,0,0,0,0,0,0,0,0,0,0,0,0,0,0,0,0,0,0,0,0,0],"sum_hessian":[7.474709E1,3.7047523E1,3.769957E1,1.0430672E0,3.6004456E1,1.4983905E1,2.2715666E1,1.8142792E1,1.7861666E1,1.193296E0,1.3790608E1,2.0830132E1,1.8855351E0,6.969249E0,1.1173542E1,1.2563326E1,5.29834E0,7.236975E0,1.3593156E1,2.059177E0,4.9100714E0,4.3440657E0,6.829477E0,5.2542286E0,7.309097E0,3.0251405E0,2.273199E0,3.7253268E0,9.867829E0],"tree_param":{"num_deleted":"0","num_feature":"6","num_nodes":"29","size_leaf_vector":"1"}},{"base_weights":[-2.3998897E-1,-4.7093594E-1,-6.927659E-2,-7.4389374E-1,-3.0788362E-1,4.226763E-2,-5.432855E-2,-1.2060363E-1,-6.78182E-2,-5.2651588E-2,-2.2221436E-1,-7.819587E-2,5.0159925E-1,-2.7818557E-2,2.2394223E-2,1.0128271E-1,-2.5087733E-2,-2.1121068E-2,2.3497261E-1,6.8199176E-1,8.464915E-3,-1.7256733E-2,4.4545144E-2,-2.2909652E-2,2.8769627E-2,6.3360184E-2,4.6901642E-3],"categories":[],"categories_nodes":[],"categories_segments":[],"categories_sizes":[],"default_left":[0,0,0,0,0,0,0,0,0,0,0,0,0,0,0,0,0,0,0,0,0,0,0,0,0,0,0],"id":14,"left_children":[1,3,5,7,9,11,-1,13,-1,-1,15,17,19,-1,-1,21,-1,-1,23,25,-1,-1,-1,-1,-1,-1,-1],"loss_changes":[2.974464E0,1.2060676E0,3.5830104E0,1.4747596E0,6.6611576E-1,2.2436275E0,0E0,6.335027E-1,0E0,0E0,9.0737814E-1,2.3409007E0,4.9519706E-1,0E0,0E0,1.3921299E0,0E0,0E0,1.5267892E0,6.9305897E-1,0E0,0E0,0E0,0E0,0E0,0E0,0E0],"parents":[2147483647,0,0,1,1,2,2,3,3,4,4,5,5,7,7,10,10,11,11,12,12,15,15,18,18,19,19],"right_children":[2,4,6,8,10,12,-1,14,-1,-1,16,18,20,-1,-1,22,-1,-1,24,26,-1,-1,-1,-1,-1,-1,-1],"split_conditions":[5.7E1,1E0,7.4E1,4.6E1,4E1,6.9E1,-5.432855E-2,4.1E1,-6.78182E-2,-5.2651588E-2,4.8E1,1E0,1E0,-2.7818557E-2,2.2394223E-2,4.6E1,-2.5087733E-2,-2.1121068E-2,1E0,7.2E1,8.464915E-3,-1.7256733E-2,4.4545144E-2,-2.2909652E-2,2.8769627E-2,6.3360184E-2,4.6901642E-3],"split_indices":[1,0,1,1,1,1,0,1,0,0,1,3,3,0,0,1,0,0,0,1,0,0,0,0,0,0,0],"split_type":[0,0,0,0,0,0,0,0,0,0,0,0,0,0,0,0,0,0,0,0,0,0,0,0,0,0,0],"sum_hessian":[7.52727E1,3.124478E1,4.402792E1,1.0352263E1,2.0892517E1,3.8839092E1,5.188826E0,3.1526387E0,7.1996245E0,2.119724E0,1.8772793E1,3.1426893E1,7.4122E0,1.9961889E0,1.1564497E0,5.6374397E0,1.3135353E1,1.8359068E1,1.3067824E1,4.491991E0,2.9202087E0,3.7434287E0,1.8940111E0,2.9107926E0,1.0157032E1,2.949819E0,1.5421721E0],"tree_param":{"num_deleted":"0","num_feature":"6","num_nodes":"27","size_leaf_vector":"1"}},{"base_weights":[-2.86989E-1,-5.1749253E-1,2.6163876E-1,-6.216152E-1,-1.8382964E-1,-2.5412685E-1,6.9841826E-1,-5.4643396E-2,-4.9254158E-1,1.8064933E-2,-5.5140562E-2,9.854165E-2,-5.0177086E-2,1.0840166E0,3.2691875E-1,-2.1359085E-1,-5.3861044E-2,-2.745793E-1,2.1111152E-1,-2.873022E-2,3.640605E-1,3.6388747E-2,1.1013673E-1,1.5312131E-2,5.3301847E-1,-4.121576E-2,5.9653437E-3,2.192617E-3,-4.383147E-2,-6.0610217E-3,5.407837E-2,-2.87793E-3,5.4587804E-2,2.2159629E-2,-2.2445036E-2,6.3444555E-2,-3.6014211E-3],"categories":[],"categories_nodes":[],"categories_segments":[],"categories_sizes":[],"default_left":[0,0,0,0,0,0,0,0,0,0,0,0,0,0,0,0,0,0,0,0,0,0,0,0,0,0,0,0,0,0,0,0,0,0,0,0,0],"id":15,"left_children":[1,3,5,7,9,11,13,-1,15,17,-1,19,-1,21,23,25,-1,27,29,-1,31,-1,-1,33,35,-1,-1,-1,-1,-1,-1,-1,-1,-1,-1,-1,-1],"loss_changes":[9.46203E0,1.7016172E0,5.242426E0,4.2447376E-1,1.7030174E0,1.8725336E0,1.4277239E0,0E0,1.7254395E0,6.996457E-1,0E0,1.11508E0,0E0,7.4825144E-1,4.907111E-1,1.5718117E0,0E0,5.519078E-1,1.3052382E0,0E0,9.123766E-1,0E0,0E0,5.186845E-1,1.0603756E0,0E0,0E0,0E0,0E0,0E0,0E0,0E0,0E0,0E0,0E0,0E0,0E0],"parents":[2147483647,0,0,1,1,2,2,3,3,4,4,5,5,6,6,8,8,9,9,11,11,13,13,14,14,15,15,17,17,18,18,20,20,23,23,24,24],"right_children":[2,4,6,8,10,12,14,-1,16,18,-1,20,-1,22,24,26,-1,28,30,-1,32,-1,-1,34,36,-1,-1,-1,-1,-1,-1,-1,-1,-1,-1,-1,-1],"split_conditions":[1E0,6.6E1,6.1E1,5.3E1,7.7E1,5.5E1,6.5E1,-5.4643396E-2,6.1E1,1E0,-5.5140562E-2,1E0,-5.0177086E-2,6.3E1,6.9E1,1E0,-5.3861044E-2,7.2E1,7.3E1,-2.873022E-2,5.1E1,3.6388747E-2,1.1013673E-1,6.7E1,7.2E1,-4.121576E-2,5.9653437E-3,2.192617E-3,-4.383147E-2,-6.0610217E-3,5.407837E-2,-2.87793E-3,5.4587804E-2,2.2159629E-2,-2.2445036E-2,6.3444555E-2,-3.6014211E-3],"split_indices":[4,1,1,1,1,1,1,0,1,0,0,0,0,1,1,0,0,1,1,0,1,0,0,1,1,0,0,0,0,0,0,0,0,0,0,0,0],"split_type":[0,0,0,0,0,0,0,0,0,0,0,0,0,0,0,0,0,0,0,0,0,0,0,0,0,0,0,0,0,0,0,0,0,0,0,0,0],"sum_hessian":[7.275128E1,5.126801E1,2.1483274E1,3.841671E1,1.28513E1,1.0042681E1,1.1440594E1,1.495092E1,2.3465788E1,1.0358359E1,2.492941E0,6.1455054E0,3.8971756E0,4.6726565E0,6.7679377E0,1.2572063E1,1.0893725E1,3.9492474E0,6.409112E0,1.9197543E0,4.2257514E0,3.128341E0,1.5443155E0,3.1220055E0,3.6459324E0,5.1433105E0,7.428753E0,2.59892E0,1.3503274E0,4.7410064E0,1.6681054E0,2.5965052E0,1.629246E0,1.6764412E0,1.4455642E0,1.888751E0,1.7571814E0],"tree_param":{"num_deleted":"0","num_feature":"6","num_nodes":"37","size_leaf_vector":"1"}},{"base_weights":[-2.2273481E-1,-3.3733818E-1,9.6927476E-1,-5.2479856E-2,-6.253126E-1,9.0831645E-2,3.821847E-1,-2.9283565E-1,4.4753242E-1,-5.9873756E-2,-3.8065073E-1,-2.0694556E-2,6.0068987E-2,6.3526526E-2,-5.904166E-1,8.943735E-2,1.5986964E-1,-6.9689775E-1,-1.2690867E-1,-5.3787036E-3,5.183363E-2,-4.7381945E-2,-3.572032E-3,3.1040238E-2,-4.145693E-3,-9.842833E-3,-6.257532E-2,3.2572676E-3,-3.6093198E-2],"categories":[],"categories_nodes":[],"categories_segments":[],"categories_sizes":[],"default_left":[0,0,0,0,0,0,0,0,0,0,0,0,0,0,0,0,0,0,0,0,0,0,0,0,0,0,0,0,0],"id":16,"left_children":[1,3,5,7,9,-1,11,13,15,-1,17,-1,-1,19,21,-1,23,25,27,-1,-1,-1,-1,-1,-1,-1,-1,-1,-1],"loss_changes":[1.0396782E1,5.5444875E0,8.0006933E-1,4.3699822E0,1.572032E0,0E0,1.4889374E0,2.62771E0,2.624609E0,0E0,1.3673007E0,0E0,0E0,1.1988252E0,5.9078264E-1,0E0,6.438385E-1,7.350826E-1,7.850027E-1,0E0,0E0,0E0,0E0,0E0,0E0,0E0,0E0,0E0,0E0],"parents":[2147483647,0,0,1,1,2,2,3,3,4,4,6,6,7,7,8,8,10,10,13,13,14,14,16,16,17,17,18,18],"right_children":[2,4,6,8,10,-1,12,14,16,-1,18,-1,-1,20,22,-1,24,26,28,-1,-1,-1,-1,-1,-1,-1,-1,-1,-1],"split_conditions":[1E0,1.93E2,1.58E2,1.72E2,2.31E2,9.0831645E-2,1.91E2,1.34E2,1.76E2,-5.9873756E-2,1E0,-2.0694556E-2,6.0068987E-2,1.3E2,1.67E2,8.943735E-2,1E0,2.53E2,2.88E2,-5.3787036E-3,5.183363E-2,-4.7381945E-2,-3.572032E-3,3.1040238E-2,-4.145693E-3,-9.842833E-3,-6.257532E-2,3.2572676E-3,-3.6093198E-2],"split_indices":[2,5,5,5,5,0,5,5,5,0,0,0,0,5,5,0,0,5,5,0,0,0,0,0,0,0,0,0,0],"split_type":[0,0,0,0,0,0,0,0,0,0,0,0,0,0,0,0,0,0,0,0,0,0,0,0,0,0,0,0,0],"sum_hessian":[7.271299E1,6.6989426E1,5.723564E0,3.427125E1,3.2718174E1,2.8945959E0,2.828968E0,2.3425138E1,1.0846115E1,1.5576977E1,1.7141195E1,1.3232648E0,1.5057032E0,1.101767E1,1.2407468E1,1.905526E0,8.940589E0,6.853266E0,1.02879305E1,9.85976E0,1.1579096E0,1.0473556E1,1.9339124E0,3.4506485E0,5.4899406E0,2.2407212E0,4.6125445E0,7.722468E0,2.5654626E0],"tree_param":{"num_deleted":"0","num_feature":"6","num_nodes":"29","size_leaf_vector":"1"}},{"base_weights":[-2.3733313E-1,-5.221132E-1,3.4112984E-1,-2.7486107E-1,-6.27121E-1,7.440219E-1,4.537149E-2,-4.784012E-1,3.321674E-1,-4.7888976E-1,-7.750404E-1,9.126763E-2,9.687647E-1,-4.9081302E-1,5.3885365E-1,-5.6054306E-1,2.483738E-3,-3.189201E-2,8.014513E-2,-6.5370595E-1,1.8417314E-2,2.6189172E-4,-6.1170068E-2,-2.8451202E-2,4.5950115E-2,1.21020705E-1,5.2298385E-1,-4.6935633E-2,1.9564012E-2,3.6043804E-2,9.390185E-1,-2.5012592E-2,-5.8568433E-2,-2.6046963E-2,-5.515922E-2,-4.3057095E-2,6.385857E-2,3.1726055E-2,-4.5893863E-2,9.068804E-2,2.7254116E-2],"categories":[],"categories_nodes":[],"categories_segments":[],"categories_sizes":[],"default_left":[0,0,0,0,0,0,0,0,0,0,0,0,0,0,0,0,0,0,0,0,0,0,0,0,0,0,0,0,0,0,0,0,0,0,0,0,0,0,0,0,0],"id":17,"left_children":[1,3,5,7,9,11,13,15,17,19,21,23,25,27,29,31,-1,-1,-1,33,-1,-1,-1,-1,-1,-1,35,-1,-1,37,39,-1,-1,-1,-1,-1,-1,-1,-1,-1,-1],"loss_changes":[1.2301756E1,1.1183062E0,2.9313254E0,2.2098103E0,3.7679863E-1,1.4473958E0,4.3431263E0,5.619147E-1,3.5682695E0,2.721528E0,1.1928053E0,1.3315643E0,1.6993499E0,1.2824309E0,1.6771324E0,3.256712E-1,0E0,0E0,0E0,3.1918E-1,0E0,0E0,0E0,0E0,0E0,0E0,3.3420296E0,0E0,0E0,1.684633E0,4.1571617E-1,0E0,0E0,0E0,0E0,0E0,0E0,0E0,0E0,0E0,0E0],"parents":[2147483647,0,0,1,1,2,2,3,3,4,4,5,5,6,6,7,7,8,8,9,9,10,10,11,11,12,12,13,13,14,14,15,15,19,19,26,26,29,29,30,30],"right_children":[2,4,6,8,10,12,14,16,18,20,22,24,26,28,30,32,-1,-1,-1,34,-1,-1,-1,-1,-1,-1,36,-1,-1,38,40,-1,-1,-1,-1,-1,-1,-1,-1,-1,-1],"split_conditions":[1E0,1.81E2,1.33E2,1.72E2,6.1E1,7.5E1,6.2E1,7E1,6.4E1,5.7E1,1.9E2,5.7E1,5.2E1,2.31E2,1.77E2,6.3E1,2.483738E-3,-3.189201E-2,8.014513E-2,4.8E1,1.8417314E-2,2.6189172E-4,-6.1170068E-2,-2.8451202E-2,4.5950115E-2,1.21020705E-1,6.1E1,-4.6935633E-2,1.9564012E-2,7E1,1.9E2,-2.5012592E-2,-5.8568433E-2,-2.6046963E-2,-5.515922E-2,-4.3057095E-2,6.385857E-2,3.1726055E-2,-4.5893863E-2,9.068804E-2,2.7254116E-2],"split_indices":[4,5,5,5,1,5,1,1,1,1,5,1,1,5,5,1,0,0,0,1,0,0,0,0,0,0,1,0,0,1,5,0,0,0,0,0,0,0,0,0,0],"split_type":[0,0,0,0,0,0,0,0,0,0,0,0,0,0,0,0,0,0,0,0,0,0,0,0,0,0,0,0,0,0,0,0,0,0,0,0,0,0,0,0,0],"sum_hessian":[7.2594955E1,4.8711475E1,2.388348E1,1.5599138E1,3.311234E1,9.468936E0,1.4414545E1,1.184076E1,3.7583787E0,1.8655262E1,1.4457076E1,2.7852924E0,6.683643E0,6.9109645E0,7.50358E0,1.0130628E1,1.710132E0,2.1316895E0,1.6266892E0,1.5194401E1,3.460861E0,1.7362034E0,1.2720873E1,1.6303501E0,1.1549424E0,1.4067315E0,5.2769117E0,5.708765E0,1.2021993E0,3.8083875E0,3.6951926E0,7.157392E0,2.9732356E0,6.123576E0,9.070825E0,1.1970824E0,4.079829E0,2.5905888E0,1.2177986E0,1.418322E0,2.2768707E0],"tree_param":{"num_deleted":"0","num_feature":"6","num_nodes":"41","size_leaf_vector":"1"}},{"base_weights":[-2.1203505E-1,-3.166115E-1,8.129705E-1,-5.3368545E-1,-1.5944609E-1,3.280037E-1,1.01241E-1,-4.2754164E-1,-6.1986327E-2,-1.9411203E-2,-7.222376E-1,6.182245E-2,-3.1996887E-2,-5.2318797E-2,-2.8927732E-1,-7.7763304E-2,4.2451483E-1,-6.357242E-2,-2.534354E-1,-2.4777757E-2,4.2075566E-3,1.2681083E-2,-9.288451E-3,5.9119657E-2,-1.6348338E-2,-4.3557517E-2,1.4377216E-2],"categories":[],"categories_nodes":[],"categories_segments":[],"categories_sizes":[],"default_left":[0,0,0,0,0,0,0,0,0,0,0,0,0,0,0,0,0,0,0,0,0,0,0,0,0,0,0],"id":18,"left_children":[1,3,5,7,9,11,-1,13,-1,15,17,-1,-1,-1,19,21,23,-1,25,-1,-1,-1,-1,-1,-1,-1,-1],"loss_changes":[7.7031097E0,2.0898614E0,1.5868664E0,6.053195E-1,3.012623E0,2.6240153E0,0E0,7.6446867E-1,0E0,8.562377E-1,4.3443084E-1,0E0,0E0,0E0,4.0807056E-1,4.355315E-1,1.2605922E0,0E0,7.289233E-1,0E0,0E0,0E0,0E0,0E0,0E0,0E0,0E0],"parents":[2147483647,0,0,1,1,2,2,3,3,4,4,5,5,7,7,9,9,10,10,14,14,15,15,16,16,18,18],"right_children":[2,4,6,8,10,12,-1,14,-1,16,18,-1,-1,-1,20,22,24,-1,26,-1,-1,-1,-1,-1,-1,-1,-1],"split_conditions":[1E0,5.7E1,6.6E1,5.5E1,7.2E1,5.7E1,1.01241E-1,4.4E1,-6.1986327E-2,7E1,1E0,6.182245E-2,-3.1996887E-2,-5.2318797E-2,5.4E1,5.9E1,1E0,-6.357242E-2,7.6E1,-2.4777757E-2,4.2075566E-3,1.2681083E-2,-9.288451E-3,5.9119657E-2,-1.6348338E-2,-4.3557517E-2,1.4377216E-2],"split_indices":[2,1,1,1,1,1,0,1,0,1,3,0,0,0,1,1,3,0,1,0,0,0,0,0,0,0,0],"split_type":[0,0,0,0,0,0,0,0,0,0,0,0,0,0,0,0,0,0,0,0,0,0,0,0,0,0,0],"sum_hessian":[6.846183E1,6.275078E1,5.711052E0,2.5346697E1,3.740408E1,4.094005E0,1.6170467E0,2.117396E1,4.172738E0,3.0779863E1,6.6242156E0,2.3249955E0,1.7690097E0,5.0606503E0,1.611331E1,2.7933022E1,2.846843E0,4.0719414E0,2.5522742E0,1.3584877E1,2.5284324E0,4.486529E0,2.3446491E1,1.5646733E0,1.2821697E0,1.2174621E0,1.3348122E0],"tree_param":{"num_deleted":"0","num_feature":"6","num_nodes":"27","size_leaf_vector":"1"}},{"base_weights":[-2.1537647E-1,-5.108075E-1,3.5577783E-1,-1.8884428E-1,-6.475262E-1,4.60863E-2,9.642923E-2,-4.038626E-1,4.021851E-1,-4.7692472E-1,-6.408761E-2,-4.358453E-2,5.2622646E-1,-5.6616604E-1,-5.377912E-2,4.2502847E-2,1.6236856E-3,-3.0806813E-1,-6.2462516E-2,6.926422E-2,6.979185E-2,-5.0442737E-2,-7.6890658E-3,-2.5274934E-2,1.6864263E-2,-3.4806535E-2,2.7977727E-2,-3.8082413E-2,4.9219817E-2],"categories":[],"categories_nodes":[],"categories_segments":[],"categories_sizes":[],"default_left":[0,0,0,0,0,0,0,0,0,0,0,0,0,0,0,0,0,0,0,0,0,0,0,0,0,0,0,0,0],"id":19,"left_children":[1,3,5,7,9,-1,11,13,15,17,-1,-1,19,21,23,-1,-1,25,-1,-1,27,-1,-1,-1,-1,-1,-1,-1,-1],"loss_changes":[1.1773397E1,1.888814E0,1.8207097E0,2.0724409E0,1.0108528E0,0E0,4.685309E0,6.240835E-1,3.3633322E-1,1.2283735E0,0E0,0E0,1.9116054E0,4.681363E-1,5.174869E-1,0E0,0E0,2.4432864E0,0E0,0E0,2.6351223E0,0E0,0E0,0E0,0E0,0E0,0E0,0E0,0E0],"parents":[2147483647,0,0,1,1,2,2,3,3,4,4,6,6,7,7,8,8,9,9,12,12,13,13,14,14,17,17,20,20],"right_children":[2,4,6,8,10,-1,12,14,16,18,-1,-1,20,22,24,-1,-1,26,-1,-1,28,-1,-1,-1,-1,-1,-1,-1,-1],"split_conditions":[1E0,1.82E2,1.33E2,1.72E2,1E0,4.60863E-2,1.65E2,1E0,1.77E2,2.7E2,-6.408761E-2,-4.358453E-2,1.9E2,1.56E2,1.36E2,4.2502847E-2,1.6236856E-3,2.41E2,-6.2462516E-2,6.926422E-2,2.31E2,-5.0442737E-2,-7.6890658E-3,-2.5274934E-2,1.6864263E-2,-3.4806535E-2,2.7977727E-2,-3.8082413E-2,4.9219817E-2],"split_indices":[4,5,5,5,3,0,5,3,5,5,0,0,5,5,5,0,0,5,0,0,5,0,0,0,0,0,0,0,0],"split_type":[0,0,0,0,0,0,0,0,0,0,0,0,0,0,0,0,0,0,0,0,0,0,0,0,0,0,0,0,0],"sum_hessian":[6.769674E1,4.4687614E1,2.3009129E1,1.4029755E1,3.065786E1,9.909054E0,1.3100075E1,1.0519432E1,3.5103223E0,2.0431654E1,1.0226206E1,4.732974E0,8.367101E0,6.7655835E0,3.7538486E0,1.8873363E0,1.6229861E0,1.5764922E1,4.6667314E0,3.5728948E0,4.7942057E0,4.6220565E0,2.143527E0,1.7274003E0,2.0264482E0,1.2674666E1,3.0902565E0,2.5062377E0,2.287968E0],"tree_param":{"num_deleted":"0","num_feature":"6","num_nodes":"29","size_leaf_vector":"1"}},{"base_weights":[-2.7548543E-1,-3.7314096E-1,4.7914315E-2,-5.436794E-1,-2.4608187E-1,-2.9265016E-1,-6.9426894E-1,-1.3190082E-1,-6.985956E-1,-4.1319646E-2,-6.978168E-3,-5.687044E-2,-2.1482082E-2,-1.9035119E-1,2.918381E-2,-6.1725315E-2,-2.8183866E-1,4.9319877E-3,-1.741871E-2,1.08875185E-2,-4.3295007E-2],"categories":[],"categories_nodes":[],"categories_segments":[],"categories_sizes":[],"default_left":[0,0,0,0,0,0,0,0,0,0,0,0,0,0,0,0,0,0,0,0,0],"id":20,"left_children":[1,3,-1,5,7,9,11,13,15,-1,-1,-1,-1,17,-1,-1,19,-1,-1,-1,-1],"loss_changes":[6.5242906E0,1.1954193E0,0E0,7.556219E-1,1.818532E0,5.866199E-1,4.4300842E-1,1.0661339E0,3.025632E-1,0E0,0E0,0E0,0E0,4.5207584E-1,0E0,0E0,6.3715756E-1,0E0,0E0,0E0,0E0],"parents":[2147483647,0,0,1,1,3,3,4,4,5,5,6,6,7,7,8,8,13,13,16,16],"right_children":[2,4,-1,6,8,10,12,14,16,-1,-1,-1,-1,18,-1,-1,20,-1,-1,-1,-1],"split_conditions":[1E0,5.7E1,4.7914315E-2,4.8E1,7.2E1,4E1,1E0,7E1,1E0,-4.1319646E-2,-6.978168E-3,-5.687044E-2,-2.1482082E-2,5.9E1,2.918381E-2,-6.1725315E-2,7.7E1,4.9319877E-3,-1.741871E-2,1.08875185E-2,-4.3295007E-2],"split_indices":[2,1,0,1,1,1,3,1,3,0,0,0,0,1,0,0,1,0,0,0,0],"split_type":[0,0,0,0,0,0,0,0,0,0,0,0,0,0,0,0,0,0,0,0,0],"sum_hessian":[6.587023E1,6.0343018E1,5.527219E0,2.436347E1,3.5979546E1,1.0238871E1,1.41245985E1,2.976144E1,6.2181063E0,3.217324E0,7.021547E0,9.982363E0,4.1422358E0,2.7487127E1,2.2743137E0,3.5442948E0,2.6738114E0,4.997514E0,2.2489613E1,1.3969566E0,1.2768548E0],"tree_param":{"num_deleted":"0","num_feature":"6","num_nodes":"21","size_leaf_vector":"1"}},{"base_weights":[-1.5086488E-1,5.744164E-1,-2.863494E-1,1.2741588E-1,7.584157E-1,-6.947522E-2,-4.858208E-1,7.992789E-2,-4.0863685E-2,8.673258E-2,3.9071515E-1,-3.0954486E-1,3.3130497E-1,-6.172911E-2,-3.8511047E-1,-2.5255492E-4,6.426562E-2,-6.0078186E-1,2.3362644E-2,5.0589496E-1,-2.6754862E-2,-1.6780514E-1,-4.8390068E-2,-9.474744E-3,-5.5131186E-2,2.9567853E-2,-1.1243819E-2,9.283785E-3,6.519597E-2,-1.7949285E-2,2.3471968E-2],"categories":[],"categories_nodes":[],"categories_segments":[],"categories_sizes":[],"default_left":[0,0,0,0,0,0,0,0,0,0,0,0,0,0,0,0,0,0,0,0,0,0,0,0,0,0,0,0,0,0,0],"id":21,"left_children":[1,3,5,7,9,11,13,-1,-1,-1,15,17,19,-1,21,-1,-1,23,25,27,-1,29,-1,-1,-1,-1,-1,-1,-1,-1,-1],"loss_changes":[6.7434816E0,7.974746E-1,2.435588E0,3.8205743E0,8.4115314E-1,2.846077E0,8.3961916E-1,0E0,0E0,0E0,1.1905515E0,1.7931204E0,1.5841998E0,0E0,1.5704579E0,0E0,0E0,7.4761343E-1,7.6714075E-1,1.369417E0,0E0,8.0581206E-1,0E0,0E0,0E0,0E0,0E0,0E0,0E0,0E0,0E0],"parents":[2147483647,0,0,1,1,2,2,3,3,4,4,5,5,6,6,10,10,11,11,12,12,14,14,17,17,18,18,19,19,21,21],"right_children":[2,4,6,8,10,12,14,-1,-1,-1,16,18,20,-1,22,-1,-1,24,26,28,-1,30,-1,-1,-1,-1,-1,-1,-1,-1,-1],"split_conditions":[1.24E2,7.7E1,1.94E2,4.4E1,9.6E1,1E0,2.05E2,7.992789E-2,-4.0863685E-2,8.673258E-2,1.14E2,1.67E2,1.83E2,-6.172911E-2,2.53E2,-2.5255492E-4,6.426562E-2,1.43E2,1.75E2,1.72E2,-2.6754862E-2,2.46E2,-4.8390068E-2,-9.474744E-3,-5.5131186E-2,2.9567853E-2,-1.1243819E-2,9.283785E-3,6.519597E-2,-1.7949285E-2,2.3471968E-2],"split_indices":[5,5,5,5,5,3,5,0,0,0,5,5,5,0,5,0,0,5,5,5,0,5,0,0,0,0,0,0,0,0,0],"split_type":[0,0,0,0,0,0,0,0,0,0,0,0,0,0,0,0,0,0,0,0,0,0,0,0,0,0,0,0,0,0,0],"sum_hessian":[6.595202E1,9.870913E0,5.6081104E1,3.3718805E0,6.499032E0,2.751446E1,2.8566643E1,1.140117E0,2.2317634E0,1.7898413E0,4.7091904E0,1.7349596E1,1.0164864E1,4.219205E0,2.4347439E1,3.2627306E0,1.44646E0,8.824778E0,8.524819E0,8.400368E0,1.7644957E0,1.5145879E1,9.201559E0,3.021436E0,5.8033414E0,2.281314E0,6.243505E0,5.1734333E0,3.2269347E0,1.3294662E1,1.8512163E0],"tree_param":{"num_deleted":"0","num_feature":"6","num_nodes":"31","size_leaf_vector":"1"}},{"base_weights":[-2.133399E-1,-5.28459E-1,3.5477877E-1,-5.6563866E-1,7.945332E-3,-2.1160394E-2,6.3738084E-1,-6.3663356E-2,-4.8533365E-1,-1.9858935E-1,4.7164306E-2,5.5018593E-2,-2.2436945E-2,-2.482933E-1,-6.98093E-1,1.7463773E-2,-3.951827E-2,-2.9865542E-2,8.487819E-3,-6.69899E-2,-3.0505687E-2],"categories":[],"categories_nodes":[],"categories_segments":[],"categories_sizes":[],"default_left":[0,0,0,0,0,0,0,0,0,0,0,0,0,0,0,0,0,0,0,0,0],"id":22,"left_children":[1,3,5,7,-1,9,11,-1,13,15,-1,-1,-1,17,19,-1,-1,-1,-1,-1,-1],"loss_changes":[1.1820133E1,1.0713558E0,2.5399992E0,6.645651E-1,0E0,1.5114619E0,2.1889286E0,0E0,1.5723705E0,1.7269658E0,0E0,0E0,0E0,1.2331996E0,7.8424835E-1,0E0,0E0,0E0,0E0,0E0,0E0],"parents":[2147483647,0,0,1,1,2,2,3,3,5,5,6,6,8,8,9,9,13,13,14,14],"right_children":[2,4,6,8,-1,10,12,-1,14,16,-1,-1,-1,18,20,-1,-1,-1,-1,-1,-1],"split_conditions":[1E0,1E0,6.1E1,4.6E1,7.945332E-3,1E0,7.2E1,-6.3663356E-2,6.1E1,5.2E1,4.7164306E-2,5.5018593E-2,-2.2436945E-2,5.7E1,6.6E1,1.7463773E-2,-3.951827E-2,-2.9865542E-2,8.487819E-3,-6.69899E-2,-3.0505687E-2],"split_indices":[4,2,1,1,0,2,1,0,1,1,0,0,0,1,1,0,0,0,0,0,0],"split_type":[0,0,0,0,0,0,0,0,0,0,0,0,0,0,0,0,0,0,0,0,0],"sum_hessian":[6.3977757E1,4.1196854E1,2.2780905E1,3.905392E1,2.1429317E0,1.0173049E1,1.2607855E1,5.439331E0,3.361459E1,8.6729355E0,1.5001135E0,1.1070056E1,1.5377985E0,1.6925024E1,1.6689566E1,4.0421147E0,4.630821E0,1.131127E1,5.613754E0,7.06621E0,9.623355E0],"tree_param":{"num_deleted":"0","num_feature":"6","num_nodes":"21","size_leaf_vector":"1"}},{"base_weights":[-1.389535E-1,3.4949392E-1,-2.596851E-1,6.56271E-2,5.687158E-1,-3.821902E-1,1.1246519E-1,4.6419594E-2,-4.633358E-1,8.101045E-2,8.2417303E-1,-4.351791E-2,-2.9417384E-1,3.443083E-1,-5.3281948E-2,1.2988589E-2,-5.3710554E-2,5.4163642E-2,-3.1995732E-2,3.258105E-1,7.952863E-2,6.451077E-2,-3.8124242E-1,-3.4543417E-2,5.874912E-1,-1.5321953E-2,4.8819833E-2,-1.8056113E-2,-4.016875E-2,8.931085E-2,-5.6624706E-3],"categories":[],"categories_nodes":[],"categories_segments":[],"categories_sizes":[],"default_left":[0,0,0,0,0,0,0,0,0,0,0,0,0,0,0,0,0,0,0,0,0,0,0,0,0,0,0,0,0,0,0],"id":23,"left_children":[1,3,5,7,9,11,13,-1,15,17,19,-1,21,23,-1,-1,-1,-1,-1,25,-1,-1,27,-1,29,-1,-1,-1,-1,-1,-1],"loss_changes":[4.046956E0,8.1660116E-1,2.5215006E0,2.5544095E0,8.816242E-1,6.840806E-1,3.1456378E0,0E0,1.0023037E0,1.7424762E0,3.895254E-1,0E0,3.7358932E0,2.7223828E0,0E0,0E0,0E0,0E0,0E0,8.172503E-1,0E0,0E0,5.7730865E-1,0E0,4.5707455E0,0E0,0E0,0E0,0E0,0E0,0E0],"parents":[2147483647,0,0,1,1,2,2,3,3,4,4,5,5,6,6,8,8,9,9,10,10,12,12,13,13,19,19,22,22,24,24],"right_children":[2,4,6,8,10,12,14,-1,16,18,20,-1,22,24,-1,-1,-1,-1,-1,26,-1,-1,28,-1,30,-1,-1,-1,-1,-1,-1],"split_conditions":[1.34E2,6.1E1,6.6E1,5.2E1,9.9E1,1.72E2,7.7E1,4.6419594E-2,7.5E1,6.8E1,6.8E1,-4.351791E-2,1.75E2,1.67E2,-5.3281948E-2,1.2988589E-2,-5.3710554E-2,5.4163642E-2,-3.1995732E-2,1.22E2,7.952863E-2,6.451077E-2,1E0,-3.4543417E-2,1.9E2,-1.5321953E-2,4.8819833E-2,-1.8056113E-2,-4.016875E-2,8.931085E-2,-5.6624706E-3],"split_indices":[5,1,1,1,5,5,1,0,5,1,1,0,5,5,0,0,0,0,0,5,0,0,3,0,5,0,0,0,0,0,0],"split_type":[0,0,0,0,0,0,0,0,0,0,0,0,0,0,0,0,0,0,0,0,0,0,0,0,0,0,0,0,0,0,0],"sum_hessian":[6.608712E1,1.2722108E1,5.336501E1,6.109884E0,6.612224E0,4.012847E1,1.3236539E1,2.7499354E0,3.3599486E0,2.7256596E0,3.8865647E0,9.1547985E0,3.0973673E1,1.0939369E1,2.2971697E0,1.196091E0,2.1638575E0,1.0001091E0,1.7255505E0,2.2832856E0,1.6032791E0,1.4294473E0,2.9544226E1,2.2294574E0,8.709912E0,1.0926805E0,1.1906052E0,1.943896E1,1.0105266E1,3.843031E0,4.866881E0],"tree_param":{"num_deleted":"0","num_feature":"6","num_nodes":"31","size_leaf_vector":"1"}},{"base_weights":[-1.4625922E-1,-4.03656E-1,3.34387E-1,-4.3214638E-2,-2.7576387E-1,1.270432E-2,6.8972364E-2,-2.1959392E-2,1.0008428E-2],"categories":[],"categories_nodes":[],"categories_segments":[],"categories_sizes":[],"default_left":[0,0,0,0,0,0,0,0,0],"id":24,"left_children":[1,3,5,-1,7,-1,-1,-1,-1],"loss_changes":[8.251929E0,1.0098848E0,2.1529055E0,0E0,5.027528E-1,0E0,0E0,0E0,0E0],"parents":[2147483647,0,0,1,1,2,2,4,4],"right_children":[2,4,6,-1,8,-1,-1,-1,-1],"split_conditions":[1E0,1E0,1E0,-4.3214638E-2,1E0,1.270432E-2,6.8972364E-2,-2.1959392E-2,1.0008428E-2],"split_indices":[4,0,2,0,2,0,0,0,0],"split_type":[0,0,0,0,0,0,0,0,0],"sum_hessian":[6.460914E1,4.2180645E1,2.2428495E1,1.4359729E1,2.7820915E1,1.9197931E1,3.2305632E0,2.5739521E1,2.0813937E0],"tree_param":{"num_deleted":"0","num_feature":"6","num_nodes":"9","size_leaf_vector":"1"}},{"base_weights":[-2.3508964E-1,2.1648811E-2,-4.0068913E-2,-2.3543738E-1,2.8845337E-1,-3.2344404E-1,3.7430584E-2,4.65688E-2,6.460133E-2,-5.900217E-1,2.1783821E-2,3.2928398E-1,-4.8144102E-2,-5.5530514E-3,-5.530935E-2,4.65631E-2,-2.1888537E-2,-1.259604E-2,3.6274325E-2],"categories":[],"categories_nodes":[],"categories_segments":[],"categories_sizes":[],"default_left":[0,0,0,0,0,0,0,0,0,0,0,0,0,0,0,0,0,0,0],"id":25,"left_children":[1,3,-1,5,7,9,-1,11,-1,13,15,17,-1,-1,-1,-1,-1,-1,-1],"loss_changes":[5.4701505E0,2.5885093E0,0E0,1.4787427E0,2.7932868E0,1.6613634E0,0E0,3.2230966E0,0E0,9.739256E-1,2.0952044E0,1.1609068E0,0E0,0E0,0E0,0E0,0E0,0E0,0E0],"parents":[2147483647,0,0,1,1,3,3,4,4,5,5,7,7,9,9,10,10,11,11],"right_children":[2,4,-1,6,8,10,-1,12,-1,14,16,18,-1,-1,-1,-1,-1,-1,-1],"split_conditions":[1.94E2,1E0,-4.0068913E-2,1E0,1.65E2,1.72E2,3.7430584E-2,1.43E2,6.460133E-2,1.34E2,1.77E2,7.7E1,-4.8144102E-2,-5.5530514E-3,-5.530935E-2,4.65631E-2,-2.1888537E-2,-1.259604E-2,3.6274325E-2],"split_indices":[5,4,0,2,5,5,0,5,0,5,5,5,0,0,0,0,0,0,0],"split_type":[0,0,0,0,0,0,0,0,0,0,0,0,0,0,0,0,0,0,0],"sum_hessian":[6.20198E1,3.57478E1,2.6272001E1,1.826534E1,1.7482456E1,1.691274E1,1.3525995E0,1.343394E1,4.0485168E0,9.143355E0,7.7693853E0,1.0097921E1,3.336019E0,2.967251E0,6.176104E0,2.3192735E0,5.450112E0,2.7453816E0,7.3525395E0],"tree_param":{"num_deleted":"0","num_feature":"6","num_nodes":"19","size_leaf_vector":"1"}},{"base_weights":[-1.3537017E-1,4.793456E-1,-2.5543284E-1,7.177268E-2,2.9868606E-1,-3.25228E-1,9.699537E-2,-5.3986866E-2,5.979292E-1,-2.7764815E-1,-4.5767438E-2,5.702171E-1,-4.3143194E-2,8.940317E-2,1.9201282E-1,-3.6045584E-1,2.513465E-1,-1.1027391E-2,9.664918E-1,-4.3337036E-2,3.6600288E-2,-2.1972752E-3,-2.7614985E-2,3.9524578E-2,-4.049089E-2,1.4035591E-1,-6.671057E-3],"categories":[],"categories_nodes":[],"categories_segments":[],"categories_sizes":[],"default_left":[0,0,0,0,0,0,0,0,0,0,0,0,0,0,0,0,0,0,0,0,0,0,0,0,0,0,0],"id":26,"left_children":[1,3,5,-1,7,9,11,-1,13,15,-1,17,-1,-1,19,21,23,-1,25,-1,-1,-1,-1,-1,-1,-1,-1],"loss_changes":[4.7261415E0,7.3337865E-1,1.3312187E0,0E0,3.4485033E0,5.1158094E-1,3.559776E0,0E0,1.9204512E0,1.8630865E0,0E0,1.9498706E0,0E0,0E0,1.958923E0,3.8416386E-1,1.9035263E0,0E0,4.7961397E0,0E0,0E0,0E0,0E0,0E0,0E0,0E0,0E0],"parents":[2147483647,0,0,1,1,2,2,4,4,5,5,6,6,8,8,9,9,11,11,14,14,15,15,16,16,18,18],"right_children":[2,4,6,-1,8,10,12,-1,14,16,-1,18,-1,-1,20,22,24,-1,26,-1,-1,-1,-1,-1,-1,-1,-1],"split_conditions":[1.16E2,4.4E1,6.9E1,7.177268E-2,6.5E1,2.82E2,7.4E1,-5.3986866E-2,5.2E1,2.41E2,-4.5767438E-2,1.76E2,-4.3143194E-2,8.940317E-2,6.1E1,1.34E2,6.4E1,-1.1027391E-2,1.9E2,-4.3337036E-2,3.6600288E-2,-2.1972752E-3,-2.7614985E-2,3.9524578E-2,-4.049089E-2,1.4035591E-1,-6.671057E-3],"split_indices":[5,5,1,0,5,5,1,0,1,5,0,5,0,0,1,5,1,0,5,0,0,0,0,0,0,0,0],"split_type":[0,0,0,0,0,0,0,0,0,0,0,0,0,0,0,0,0,0,0,0,0,0,0,0,0,0,0],"sum_hessian":[6.1377037E1,9.5400305E0,5.183701E1,1.2094507E0,8.33058E0,4.3332573E1,8.5044365E0,1.4759822E0,6.8545976E0,3.946329E1,3.8692822E0,5.2332892E0,3.2711468E0,1.7611177E0,5.09348E0,3.4397396E1,5.065892E0,2.0573912E0,3.1758983E0,1.2232615E0,3.8702185E0,3.4051838E0,3.0992212E1,3.9094148E0,1.1564776E0,1.1563848E0,2.0195134E0],"tree_param":{"num_deleted":"0","num_feature":"6","num_nodes":"27","size_leaf_vector":"1"}},{"base_weights":[-3.203169E-2,-2.640755E-1,3.813583E-1,-3.494874E-2,-1.356021E-1,1.9775104E-2,4.929023E-2,-1.3115328E-2,2.0189129E-2],"categories":[],"categories_nodes":[],"categories_segments":[],"categories_sizes":[],"default_left":[0,0,0,0,0,0,0,0,0],"id":27,"left_children":[1,3,5,-1,7,-1,-1,-1,-1],"loss_changes":[6.125648E0,1.1656857E0,5.3468394E-1,0E0,6.635449E-1,0E0,0E0,0E0,0E0],"parents":[2147483647,0,0,1,1,2,2,4,4],"right_children":[2,4,6,-1,8,-1,-1,-1,-1],"split_conditions":[1E0,1E0,1E0,-3.494874E-2,1E0,1.9775104E-2,4.929023E-2,-1.3115328E-2,2.0189129E-2],"split_indices":[4,0,2,0,2,0,0,0,0],"split_type":[0,0,0,0,0,0,0,0,0],"sum_hessian":[6.180914E1,3.98191E1,2.1990036E1,1.3047428E1,2.6771673E1,1.8269901E1,3.7201355E0,2.4356602E1,2.415072E0],"tree_param":{"num_deleted":"0","num_feature":"6","num_nodes":"9","size_leaf_vector":"1"}},{"base_weights":[-1.0600324E-1,-3.1952053E-1,2.516453E-1,2.202231E-3,-4.858462E-1,-7.3455274E-2,6.548696E-1,-2.1729212E-1,4.666487E-1,-3.037706E-1,-6.618549E-1,3.6146414E-1,-2.9026535E-1,8.2523704E-1,-8.617222E-3,-3.6480588E-1,1.9044423E-2,-6.045525E-3,6.2193844E-2,-3.7462912E-2,4.344358E-1,1.12098465E-2,-7.857857E-1,5.2554823E-2,-1.5194566E-4,1.863883E-2,-4.340907E-1,9.386385E-2,4.298873E-1,-1.2992995E-2,-4.804498E-2,-1.2928834E-2,5.64176E-2,-6.0115624E-2,-4.169498E-3,-4.269781E-2,-5.512347E-3,-3.1408737E-3,5.2047797E-2],"categories":[],"categories_nodes":[],"categories_segments":[],"categories_sizes":[],"default_left":[0,0,0,0,0,0,0,0,0,0,0,0,0,0,0,0,0,0,0,0,0,0,0,0,0,0,0,0,0,0,0,0,0,0,0,0,0,0,0],"id":28,"left_children":[1,3,5,7,9,11,13,15,17,19,21,23,25,27,-1,29,-1,-1,-1,-1,31,-1,33,-1,-1,-1,35,-1,37,-1,-1,-1,-1,-1,-1,-1,-1,-1,-1],"loss_changes":[4.754713E0,2.075634E0,3.1210346E0,1.5498E0,6.1810446E-1,1.413471E0,1.5018144E0,8.44975E-1,1.2145323E0,2.6945884E0,1.3634429E0,7.182417E-1,9.0123975E-1,1.2168946E0,0E0,3.545823E-1,0E0,0E0,0E0,0E0,1.0670516E0,0E0,5.175681E-1,0E0,0E0,0E0,4.6318185E-1,0E0,9.9396706E-1,0E0,0E0,0E0,0E0,0E0,0E0,0E0,0E0,0E0,0E0],"parents":[2147483647,0,0,1,1,2,2,3,3,4,4,5,5,6,6,7,7,8,8,9,9,10,10,11,11,12,12,13,13,15,15,20,20,22,22,26,26,28,28],"right_children":[2,4,6,8,10,12,14,16,18,20,22,24,26,28,-1,30,-1,-1,-1,-1,32,-1,34,-1,-1,-1,36,-1,38,-1,-1,-1,-1,-1,-1,-1,-1,-1,-1],"split_conditions":[1E0,1.82E2,6.3E1,1.72E2,6.1E1,5.3E1,7.2E1,6.8E1,6.4E1,5.7E1,1.9E2,1.22E2,8.6E1,1.33E2,-8.617222E-3,6.3E1,1.9044423E-2,-6.045525E-3,6.2193844E-2,-3.7462912E-2,2.18E2,1.12098465E-2,2.81E2,5.2554823E-2,-1.5194566E-4,1.863883E-2,1.81E2,9.386385E-2,1.71E2,-1.2992995E-2,-4.804498E-2,-1.2928834E-2,5.64176E-2,-6.0115624E-2,-4.169498E-3,-4.269781E-2,-5.512347E-3,-3.1408737E-3,5.2047797E-2],"split_indices":[4,5,1,5,1,1,1,1,1,1,5,5,5,5,0,1,0,0,0,0,5,0,5,0,0,0,5,0,5,0,0,0,0,0,0,0,0,0,0],"split_type":[0,0,0,0,0,0,0,0,0,0,0,0,0,0,0,0,0,0,0,0,0,0,0,0,0,0,0,0,0,0,0,0,0,0,0,0,0,0,0],"sum_hessian":[6.0210762E1,3.7769096E1,2.2441662E1,1.3207898E1,2.45612E1,1.2877211E1,9.564452E0,9.330509E0,3.877389E0,1.3412387E1,1.1148813E1,4.0618925E0,8.815318E0,7.796378E0,1.7680738E0,7.36491E0,1.9655988E0,2.021943E0,1.8554457E0,1.0420711E1,2.9916766E0,1.4223846E0,9.726429E0,1.4474951E0,2.6143973E0,1.6354774E0,7.179841E0,2.3454173E0,5.4509606E0,5.7421894E0,1.6227207E0,1.310566E0,1.6811106E0,8.672053E0,1.0543759E0,4.323398E0,2.8564427E0,2.5094714E0,2.9414892E0],"tree_param":{"num_deleted":"0","num_feature":"6","num_nodes":"39","size_leaf_vector":"1"}},{"base_weights":[-2.0073086E-1,-2.6957655E-2,1.0609664E-1,-7.125411E-3,2.7263463E-2],"categories":[],"categories_nodes":[],"categories_segments":[],"categories_sizes":[],"default_left":[0,0,0,0,0],"id":29,"left_children":[1,-1,3,-1,-1],"loss_changes":[3.47151E0,0E0,1.4268049E0,0E0,0E0],"parents":[2147483647,0,0,2,2],"right_children":[2,-1,4,-1,-1],"split_conditions":[1E0,-2.6957655E-2,1E0,-7.125411E-3,2.7263463E-2],"split_indices":[4,0,3,0,0],"split_type":[0,0,0,0,0],"sum_hessian":[5.964178E1,3.7095345E1,2.2546436E1,1.3375201E1,9.171235E0],"tree_param":{"num_deleted":"0","num_feature":"6","num_nodes":"5","size_leaf_vector":"1"}}]},"name":"gbtree"},"learner_model_param":{"base_score":"1.5849198E-1","boost_from_average":"1","num_class":"0","num_feature":"6","num_target":"1"},"objective":{"name":"binary:logistic","reg_loss_param":{"scale_pos_weight":"1"}}},"version":[2,0,3]}