{"learner":{"attributes":{"scikit_learn":"{\"_estimator_type\": \"classifier\"}"},"feature_names":[],"feature_types":[],"gradient_booster":{"model":{"gbtree_model_param":{"num_parallel_tree":"1","num_trees":"40"},"iteration_indptr":[0,1,2,3,4,5,6,7,8,9,10,11,12,13,14,15,16,17,18,19,20,21,22,23,24,25,26,27,28,29,30,31,32,33,34,35,36,37,38,39,40],"tree_info":[0,0,0,0,0,0,0,0,0,0,0,0,0,0,0,0,0,0,0,0,0,0,0,0,0,0,0,0,0,0,0,0,0,0,0,0,0,0,0,0],"trees":[{"base_weights":[-2.0763338E-1,-3.3755443E-1,1.5813609E0,-1.6293913E-2,-5.0043296E-3,2.2180088E-2,5.777693E-2],"categories":[],"categories_nodes":[],"categories_segments":[],"categories_sizes":[],"default_left":[0,0,0,0,0,0,0],"id":0,"left_children":[1,3,5,-1,-1,-1,-1],"loss_changes":[2.2810207E1,3.074689E0,5.0967216E-1,0E0,0E0,0E0,0E0],"parents":[2147483647,0,0,1,1,2,2],"right_children":[2,4,6,-1,-1,-1,-1],"split_conditions":[1E0,1E0,1E0,-1.6293913E-2,-5.0043296E-3,2.2180088E-2,5.777693E-2],"split_indices":[2,0,3,0,0,0,0],"split_type":[0,0,0,0,0,0,0],"sum_hessian":[9.48422E1,8.917725E1,5.6649485E0,3.9471897E1,4.9705353E1,2.558364E0,3.1065845E0],"tree_param":{"num_deleted":"0","num_feature":"7","num_nodes":"7","size_leaf_vector":"1"}},{"base_weights":[1.4028683E-2,-5.566676E-1,1.3746359E0,-3.1821415E-1,-3.7290823E-2,1.690741E0,1.14788786E-1,-1.1979153E-2,4.3697342E-2,1.1602571E-2,5.6281857E-2,-2.5400912E-2,1.7866638E-2],"categories":[],"categories_nodes":[],"categories_segments":[],"categories_sizes":[],"default_left":[0,0,0,0,0,0,0,0,0,0,0,0,0],"id":1,"left_children":[1,3,5,7,-1,9,11,-1,-1,-1,-1,-1,-1],"loss_changes":[8.0379036E1,1.1542873E1,1.1986458E1,8.566344E0,0E0,5.1655045E0,3.8360152E0,0E0,0E0,0E0,0E0,0E0,0E0],"parents":[2147483647,0,0,1,1,2,2,3,3,5,5,6,6],"right_children":[2,4,6,8,-1,10,12,-1,-1,-1,-1,-1,-1],"split_conditions":[1E0,2.44E2,1.94E2,2.41E2,-3.7290823E-2,7.7E1,1E0,-1.1979153E-2,4.3697342E-2,1.1602571E-2,5.6281857E-2,-2.5400912E-2,1.7866638E-2],"split_indices":[4,5,5,5,0,5,0,0,0,0,0,0,0],"split_type":[0,0,0,0,0,0,0,0,0,0,0,0,0],"sum_hessian":[1.01529915E2,7.19443E1,2.9585615E1,5.4480457E1,1.746384E1,2.3377905E1,6.2077107E0,5.2841137E1,1.6393192E0,3.2931297E0,2.0084776E1,1.8155804E0,4.3921304E0],"tree_param":{"num_deleted":"0","num_feature":"7","num_nodes":"13","size_leaf_vector":"1"}},{"base_weights":[-2.31659E-1,3.1227434E-1,-7.992569E-1,-3.3761114E-1,1.068133E0,-9.94365E-1,-4.058987E-1,3.408286E-2,-1.9519892E-2,3.8449083E-2,-2.633826E-2,-3.6044713E-2,-2.4804194E-2,4.522214E-2,-2.0454835E-2],"categories":[],"categories_nodes":[],"categories_segments":[],"categories_sizes":[],"default_left":[0,0,0,0,0,0,0,0,0,0,0,0,0,0,0],"id":2,"left_children":[1,3,5,7,9,11,13,-1,-1,-1,-1,-1,-1,-1,-1],"loss_changes":[3.1405651E1,2.6027355E1,3.4079876E0,1.4051258E1,1.126162E1,1.3481522E-1,1.0613055E1,0E0,0E0,0E0,0E0,0E0,0E0,0E0,0E0],"parents":[2147483647,0,0,1,1,2,2,3,3,4,4,5,5,6,6],"right_children":[2,4,6,8,10,12,14,-1,-1,-1,-1,-1,-1,-1,-1],"split_conditions":[1.9E2,6.2E1,2.5E2,9.6E1,7.7E1,1E0,2.53E2,3.408286E-2,-1.9519892E-2,3.8449083E-2,-2.633826E-2,-3.6044713E-2,-2.4804194E-2,4.522214E-2,-2.0454835E-2],"split_indices":[5,1,5,5,1,0,5,0,0,0,0,0,0,0,0],"split_type":[0,0,0,0,0,0,0,0,0,0,0,0,0,0,0],"sum_hessian":[9.991509E1,5.125085E1,4.8664238E1,2.7854748E1,2.3396105E1,3.1508133E1,1.7156107E1,4.4197016E0,2.3435045E1,2.1390757E1,2.0053473E0,1.1330945E1,2.0177187E1,1.5998273E0,1.5556279E1],"tree_param":{"num_deleted":"0","num_feature":"7","num_nodes":"15","size_leaf_vector":"1"}},{"base_weights":[-2.1579707E-2,-5.700751E-1,1.1619581E0,-1.637778E-1,-7.372762E-1,1.464054E0,-5.493697E-1,-1.7015962E-2,3.782879E-2,-3.639795E-2,-1.6005069E-2,2.2833044E-2,6.724091E-2,-3.0638443E-2,2.2432413E-2],"categories":[],"categories_nodes":[],"categories_segments":[],"categories_sizes":[],"default_left":[0,0,0,0,0,0,0,0,0,0,0,0,0,0,0],"id":3,"left_children":[1,3,5,7,9,11,13,-1,-1,-1,-1,-1,-1,-1,-1],"loss_changes":[6.7635E1,4.713894E0,1.7864754E1,1.3379763E1,4.215351E0,1.3769234E1,4.2395964E0,0E0,0E0,0E0,0E0,0E0,0E0,0E0,0E0],"parents":[2147483647,0,0,1,1,2,2,3,3,4,4,5,5,6,6],"right_children":[2,4,6,8,10,12,14,-1,-1,-1,-1,-1,-1,-1,-1],"split_conditions":[1E0,1.81E2,2.08E2,1.73E2,2.05E2,1E0,2.82E2,-1.7015962E-2,3.782879E-2,-3.639795E-2,-1.6005069E-2,2.2833044E-2,6.724091E-2,-3.0638443E-2,2.2432413E-2],"split_indices":[4,5,5,5,5,3,5,0,0,0,0,0,0,0,0],"split_type":[0,0,0,0,0,0,0,0,0,0,0,0,0,0,0],"sum_hessian":[1.02167305E2,7.0167435E1,3.1999865E1,2.1034155E1,4.913328E1,2.7321388E1,4.678476E0,1.6861605E1,4.1725483E0,1.3243722E1,3.588956E1,1.5386188E1,1.1935202E1,3.5863554E0,1.0921206E0],"tree_param":{"num_deleted":"0","num_feature":"7","num_nodes":"15","size_leaf_vector":"1"}},{"base_weights":[-1.4190017E-1,-4.935824E-1,4.6134394E-1,-2.1997662E-2,-2.933398E-1,2.9816303E-1,4.7889646E-2,-1.0182367E-2,1.6137855E-2,-3.0208132E-3,1.3988812E-2],"categories":[],"categories_nodes":[],"categories_segments":[],"categories_sizes":[],"default_left":[0,0,0,0,0,0,0,0,0,0,0],"id":4,"left_children":[1,3,5,-1,7,9,-1,-1,-1,-1,-1],"loss_changes":[2.1660217E1,2.8709612E0,6.510517E0,0E0,1.5881319E0,2.3411121E0,0E0,0E0,0E0,0E0,0E0],"parents":[2147483647,0,0,1,1,2,2,4,4,5,5],"right_children":[2,4,6,-1,8,10,-1,-1,-1,-1,-1],"split_conditions":[1E0,1E0,1E0,-2.1997662E-2,1E0,1E0,4.7889646E-2,-1.0182367E-2,1.6137855E-2,-3.0208132E-3,1.3988812E-2],"split_indices":[3,0,2,0,2,0,0,0,0,0,0],"split_type":[0,0,0,0,0,0,0,0,0,0,0],"sum_hessian":[1.0002513E2,6.3302505E1,3.6722622E1,2.760267E1,3.5699837E1,3.3210503E1,3.5121212E0,3.4385723E1,1.3141118E0,9.966961E0,2.324354E1],"tree_param":{"num_deleted":"0","num_feature":"7","num_nodes":"11","size_leaf_vector":"1"}},{"base_weights":[-6.133212E-2,1.7014362E0,-3.0849007E-1,6.8775706E-2,9.052514E-1,1.2866618E-1,-7.616595E-1,-3.9260407E-4,4.0137056E-2,-1.5391651E-2,1.7460696E-2,-3.6084928E-2,-1.6358789E-2],"categories":[],"categories_nodes":[],"categories_segments":[],"categories_sizes":[],"default_left":[0,0,0,0,0,0,0,0,0,0,0,0,0],"id":5,"left_children":[1,3,5,-1,7,9,11,-1,-1,-1,-1,-1,-1],"loss_changes":[4.6949978E1,4.1634827E0,1.8779495E1,0E0,2.918314E0,1.4511589E1,3.77767E0,0E0,0E0,0E0,0E0,0E0,0E0],"parents":[2147483647,0,0,1,1,2,2,4,4,5,5,6,6],"right_children":[2,4,6,-1,8,10,12,-1,-1,-1,-1,-1,-1],"split_conditions":[3.9E0,3.2E0,4.46E0,6.8775706E-2,1E0,1E0,1E0,-3.9260407E-4,4.0137056E-2,-1.5391651E-2,1.7460696E-2,-3.6084928E-2,-1.6358789E-2],"split_indices":[6,6,6,0,0,0,0,0,0,0,0,0,0],"split_type":[0,0,0,0,0,0,0,0,0,0,0,0,0],"sum_hessian":[1.0555727E2,1.2256688E1,9.3300575E1,5.955752E0,6.3009357E0,4.7853806E1,4.544677E1,2.3284187E0,3.972517E0,1.9756727E1,2.809708E1,1.3454277E1,3.199249E1],"tree_param":{"num_deleted":"0","num_feature":"7","num_nodes":"13","size_leaf_vector":"1"}},{"base_weights":[-1.1421257E-1,-7.087661E-1,2.8022182E-1,-3.5645664E-2,-4.3650314E-1,-5.6559E-2,9.835354E-1,-1.9705486E-2,1.2399524E-2,8.720258E-3,-6.100776E-3,3.559321E-2,-2.3967063E-2],"categories":[],"categories_nodes":[],"categories_segments":[],"categories_sizes":[],"default_left":[0,0,0,0,0,0,0,0,0,0,0,0,0],"id":6,"left_children":[1,3,5,-1,7,9,11,-1,-1,-1,-1,-1,-1],"loss_changes":[2.2234646E1,4.4100246E0,1.3605623E1,0E0,5.0770845E0,2.0791383E0,7.6667404E0,0E0,0E0,0E0,0E0,0E0,0E0],"parents":[2147483647,0,0,1,1,2,2,4,4,5,5,6,6],"right_children":[2,4,6,-1,8,10,12,-1,-1,-1,-1,-1,-1],"split_conditions":[5.7E1,1E0,1E0,-3.5645664E-2,1E0,6.1E1,7.3E1,-1.9705486E-2,1.2399524E-2,8.720258E-3,-6.100776E-3,3.559321E-2,-2.3967063E-2],"split_indices":[1,0,4,0,4,1,1,0,0,0,0,0,0],"split_type":[0,0,0,0,0,0,0,0,0,0,0,0,0],"sum_hessian":[9.2965355E1,3.6759197E1,5.6206158E1,1.2095803E1,2.4663393E1,3.8628525E1,1.7577637E1,1.9765541E1,4.897852E0,1.1187074E1,2.744145E1,1.6081373E1,1.4962621E0],"tree_param":{"num_deleted":"0","num_feature":"7","num_nodes":"13","size_leaf_vector":"1"}},{"base_weights":[-2.2017768E-1,1.0292276E0,-5.062774E-1,6.0700905E-1,7.104383E-2,6.270557E-2,-6.307423E-1,3.7408993E-2,5.394031E-3,-1.89344E-2,3.764073E-2,-2.0430472E-2,5.1640416E-3],"categories":[],"categories_nodes":[],"categories_segments":[],"categories_sizes":[],"default_left":[0,0,0,0,0,0,0,0,0,0,0,0,0],"id":7,"left_children":[1,3,5,7,-1,9,11,-1,-1,-1,-1,-1,-1],"loss_changes":[3.7318096E1,9.591766E0,6.0188713E0,4.1986027E0,0E0,1.4077789E1,2.9171429E0,0E0,0E0,0E0,0E0,0E0,0E0],"parents":[2147483647,0,0,1,1,2,2,3,3,5,5,6,6],"right_children":[2,4,6,8,-1,10,12,-1,-1,-1,-1,-1,-1],"split_conditions":[4.1E0,1E0,4.3E0,3.6E0,7.104383E-2,1E0,1E0,3.7408993E-2,5.394031E-3,-1.89344E-2,3.764073E-2,-2.0430472E-2,5.1640416E-3],"split_indices":[6,2,6,6,0,3,2,0,0,0,0,0,0],"split_type":[0,0,0,0,0,0,0,0,0,0,0,0,0],"sum_hessian":[1.0194183E2,1.8510132E1,8.34317E1,1.5177356E1,3.332776E0,1.5063968E1,6.836773E1,5.307639E0,9.869717E0,9.81891E0,5.2450585E0,6.448187E1,3.885857E0],"tree_param":{"num_deleted":"0","num_feature":"7","num_nodes":"13","size_leaf_vector":"1"}},{"base_weights":[-1.35905E-1,-5.659782E-1,8.0684596E-1,-4.521864E-1,-3.466771E-2,1.3396488E0,4.6824357E-1,-2.3995968E-2,-7.2868653E-3,1.8777864E-2,4.9714956E-2,-1.5021041E-2,3.230546E-2],"categories":[],"categories_nodes":[],"categories_segments":[],"categories_sizes":[],"default_left":[0,0,0,0,0,0,0,0,0,0,0,0,0],"id":8,"left_children":[1,3,5,7,-1,9,11,-1,-1,-1,-1,-1,-1],"loss_changes":[4.0290565E1,4.043503E0,4.999712E0,4.0762634E0,0E0,1.5874863E0,1.2691832E1,0E0,0E0,0E0,0E0,0E0,0E0],"parents":[2147483647,0,0,1,1,2,2,3,3,5,5,6,6],"right_children":[2,4,6,8,-1,10,12,-1,-1,-1,-1,-1,-1],"split_conditions":[1E0,2.7E2,1.39E2,1E0,-3.466771E-2,9.9E1,1.76E2,-2.3995968E-2,-7.2868653E-3,1.8777864E-2,4.9714956E-2,-1.5021041E-2,3.230546E-2],"split_indices":[4,5,5,0,0,5,5,0,0,0,0,0,0],"split_type":[0,0,0,0,0,0,0,0,0,0,0,0,0],"sum_hessian":[9.724569E1,6.7055374E1,3.0190315E1,5.7688698E1,9.366673E0,1.0582294E1,1.960802E1,2.0617165E1,3.7071533E1,4.1731434E0,6.4091506E0,7.633004E0,1.1975016E1],"tree_param":{"num_deleted":"0","num_feature":"7","num_nodes":"13","size_leaf_vector":"1"}},{"base_weights":[-1.0115471E-1,-4.6890035E-1,6.980085E-1,-1.7879397E-2,-1.9320318E-1,5.022568E-2,4.4652503E-2,-2.0363137E-2,7.7470636E-4,-2.1801805E-2,1.5516482E-2],"categories":[],"categories_nodes":[],"categories_segments":[],"categories_sizes":[],"default_left":[0,0,0,0,0,0,0,0,0,0,0],"id":9,"left_children":[1,3,5,-1,7,9,-1,-1,-1,-1,-1],"loss_changes":[2.907301E1,2.2527227E0,1.5913695E1,0E0,2.4427133E0,6.978145E0,0E0,0E0,0E0,0E0,0E0],"parents":[2147483647,0,0,1,1,2,2,4,4,5,5],"right_children":[2,4,6,-1,8,10,-1,-1,-1,-1,-1],"split_conditions":[1E0,1E0,1E0,-1.7879397E-2,1E0,1E0,4.4652503E-2,-2.0363137E-2,7.7470636E-4,-2.1801805E-2,1.5516482E-2],"split_indices":[4,3,3,0,0,0,0,0,0,0,0],"split_type":[0,0,0,0,0,0,0,0,0,0,0],"sum_hessian":[9.681153E1,6.658487E1,3.0226658E1,4.4781574E1,2.1803293E1,1.7196627E1,1.3030032E1,6.125165E0,1.5678129E1,6.2470093E0,1.0949616E1],"tree_param":{"num_deleted":"0","num_feature":"7","num_nodes":"11","size_leaf_vector":"1"}},{"base_weights":[-1.5935452E-1,1.2246166E0,-4.2545924E-1,1.4363393E0,-2.116951E-2,2.74997E-1,-8.441441E-1,6.718359E-2,2.2425158E-2,3.1624778E-4,6.3074194E-2,-2.8819574E-2,-6.548169E-3],"categories":[],"categories_nodes":[],"categories_segments":[],"categories_sizes":[],"default_left":[0,0,0,0,0,0,0,0,0,0,0,0,0],"id":10,"left_children":[1,3,5,7,-1,9,11,-1,-1,-1,-1,-1,-1],"loss_changes":[3.5544792E1,7.3867493E0,2.3842186E1,6.2826004E0,0E0,1.4898141E1,3.4824715E0,0E0,0E0,0E0,0E0,0E0,0E0],"parents":[2147483647,0,0,1,1,2,2,3,3,5,5,6,6],"right_children":[2,4,6,8,-1,10,12,-1,-1,-1,-1,-1,-1],"split_conditions":[3.94E0,2.51E2,1.75E2,3.2E0,-2.116951E-2,1.72E2,1E0,6.718359E-2,2.2425158E-2,3.1624778E-4,6.3074194E-2,-2.8819574E-2,-6.548169E-3],"split_indices":[6,5,5,6,0,5,4,0,0,0,0,0,0],"split_type":[0,0,0,0,0,0,0,0,0,0,0,0,0],"sum_hessian":[9.410061E1,1.45945425E1,7.9506065E1,1.3382554E1,1.2119883E0,2.987262E1,4.9633446E1,5.1394143E0,8.24314E0,2.6974838E1,2.8977802E0,4.139307E1,8.240377E0],"tree_param":{"num_deleted":"0","num_feature":"7","num_nodes":"13","size_leaf_vector":"1"}},{"base_weights":[-1.3576595E-1,9.761722E-1,-6.625768E-1,7.0661145E-1,6.776374E-2,-8.3836436E-1,-3.4567612E-1,-1.4957407E-2,2.83155E-2,-2.6843613E-2,1.7527161E-2,-1.5326897E-2,3.3072073E-2],"categories":[],"categories_nodes":[],"categories_segments":[],"categories_sizes":[],"default_left":[0,0,0,0,0,0,0,0,0,0,0,0,0],"id":11,"left_children":[1,3,5,7,-1,9,11,-1,-1,-1,-1,-1,-1],"loss_changes":[5.9741695E1,9.75643E0,3.5566254E0,8.6444E0,0E0,4.031248E0,6.8644323E0,0E0,0E0,0E0,0E0,0E0,0E0],"parents":[2147483647,0,0,1,1,2,2,3,3,5,5,6,6],"right_children":[2,4,6,8,-1,10,12,-1,-1,-1,-1,-1,-1],"split_conditions":[4.3E0,1E0,6.2E1,5.1E1,6.776374E-2,1E0,5E0,-1.4957407E-2,2.83155E-2,-2.6843613E-2,1.7527161E-2,-1.5326897E-2,3.3072073E-2],"split_indices":[6,2,1,1,0,2,6,0,0,0,0,0,0],"split_type":[0,0,0,0,0,0,0,0,0,0,0,0,0],"sum_hessian":[9.988223E1,3.1835066E1,6.804717E1,2.7587973E1,4.2470946E0,4.271003E1,2.533714E1,4.3562517E0,2.323172E1,4.143757E1,1.2724607E0,2.3323235E1,2.0139053E0],"tree_param":{"num_deleted":"0","num_feature":"7","num_nodes":"13","size_leaf_vector":"1"}},{"base_weights":[-1.2190829E-1,8.670679E-1,-5.999264E-1,6.845519E-2,5.2991134E-1,-2.872208E-1,-9.51383E-1,4.7556743E-2,7.895761E-3,-4.8884396E-3,-3.0560452E-2,-3.0867876E-2,2.7235781E-3],"categories":[],"categories_nodes":[],"categories_segments":[],"categories_sizes":[],"default_left":[0,0,0,0,0,0,0,0,0,0,0,0,0],"id":12,"left_children":[1,3,5,-1,7,9,11,-1,-1,-1,-1,-1,-1],"loss_changes":[4.764968E1,1.4481079E1,7.178011E0,0E0,7.4262266E0,3.225496E0,2.6382465E0,0E0,0E0,0E0,0E0,0E0,0E0],"parents":[2147483647,0,0,1,1,2,2,4,4,5,5,6,6],"right_children":[2,4,6,-1,8,10,12,-1,-1,-1,-1,-1,-1],"split_conditions":[4.3E0,3.4E0,4.59E0,6.845519E-2,1.07E2,2.77E2,5.1E0,4.7556743E-2,7.895761E-3,-4.8884396E-3,-3.0560452E-2,-3.0867876E-2,2.7235781E-3],"split_indices":[6,6,6,0,5,5,6,0,0,0,0,0,0],"split_type":[0,0,0,0,0,0,0,0,0,0,0,0,0],"sum_hessian":[9.869256E1,3.1893633E1,6.679892E1,5.027868E0,2.6865767E1,3.6309807E1,3.0489117E1,4.4228196E0,2.2442945E1,3.208196E1,4.227848E0,2.8389406E1,2.0997105E0],"tree_param":{"num_deleted":"0","num_feature":"7","num_nodes":"13","size_leaf_vector":"1"}},{"base_weights":[-1.1349279E-1,-5.190214E-1,7.106349E-1,-2.262646E-2,-3.703675E-2,1.52309965E-2,2.9021561E-2,-5.9221266E-3,3.2038514E-2],"categories":[],"categories_nodes":[],"categories_segments":[],"categories_sizes":[],"default_left":[0,0,0,0,0,0,0,0,0],"id":13,"left_children":[1,3,5,-1,7,-1,-1,-1,-1],"loss_changes":[3.259856E1,7.3643208E0,1.1879406E0,0E0,4.1867423E0,0E0,0E0,0E0,0E0],"parents":[2147483647,0,0,1,1,2,2,4,4],"right_children":[2,4,6,-1,8,-1,-1,-1,-1],"split_conditions":[1E0,1E0,1E0,-2.262646E-2,1E0,1.52309965E-2,2.9021561E-2,-5.9221266E-3,3.2038514E-2],"split_indices":[4,3,3,0,2,0,0,0,0],"split_type":[0,0,0,0,0,0,0,0,0],"sum_hessian":[9.543632E1,6.421048E1,3.122584E1,4.277349E1,2.1436989E1,1.9103716E1,1.2122125E1,1.9437382E1,1.9996076E0],"tree_param":{"num_deleted":"0","num_feature":"7","num_nodes":"9","size_leaf_vector":"1"}},{"base_weights":[-8.367325E-2,1.28131E0,-4.7659415E-1,1.5755281E0,-2.7516367E-2,-2.9726375E-2,-8.7256825E-1,2.9681455E-2,5.9970543E-2,-2.129373E-2,2.4337148E-2,-1.8893125E-2,-3.5290305E-2],"categories":[],"categories_nodes":[],"categories_segments":[],"categories_sizes":[],"default_left":[0,0,0,0,0,0,0,0,0,0,0,0,0],"id":14,"left_children":[1,3,5,7,-1,9,11,-1,-1,-1,-1,-1,-1],"loss_changes":[5.479088E1,1.6226028E1,1.3982931E1,3.1162453E0,0E0,2.2439772E1,2.3524704E0,0E0,0E0,0E0,0E0,0E0,0E0],"parents":[2147483647,0,0,1,1,2,2,3,3,5,5,6,6],"right_children":[2,4,6,8,-1,10,12,-1,-1,-1,-1,-1,-1],"split_conditions":[4.1E0,7.2E1,1.93E2,6.1E1,-2.7516367E-2,1.69E2,4.59E0,2.9681455E-2,5.9970543E-2,-2.129373E-2,2.4337148E-2,-1.8893125E-2,-3.5290305E-2],"split_indices":[6,1,5,1,0,5,6,0,0,0,0,0,0],"split_type":[0,0,0,0,0,0,0,0,0,0,0,0,0],"sum_hessian":[1.000202E2,2.1850815E1,7.816939E1,1.9521688E1,2.329128E0,3.7229702E1,4.0939686E1,9.587723E0,9.933965E0,2.067024E1,1.6559464E1,2.446154E1,1.6478146E1],"tree_param":{"num_deleted":"0","num_feature":"7","num_nodes":"13","size_leaf_vector":"1"}},{"base_weights":[-1.9920164E-1,6.916338E-1,-6.345947E-1,1.8935663E0,3.0053654E-1,-6.885308E-1,8.9994065E-2,8.71149E-3,6.7737475E-2,-5.9300507E-3,2.136385E-2,-2.388442E-2,-1.2488943E-2,-2.5489524E-2,2.9221017E-2],"categories":[],"categories_nodes":[],"categories_segments":[],"categories_sizes":[],"default_left":[0,0,0,0,0,0,0,0,0,0,0,0,0,0,0],"id":15,"left_children":[1,3,5,7,9,11,13,-1,-1,-1,-1,-1,-1,-1,-1],"loss_changes":[3.6716278E1,1.4089775E1,2.5376568E0,3.7061062E0,5.2091656E0,1.3992405E0,5.2078466E0,0E0,0E0,0E0,0E0,0E0,0E0,0E0,0E0],"parents":[2147483647,0,0,1,1,2,2,3,3,4,4,5,5,6,6],"right_children":[2,4,6,8,10,12,14,-1,-1,-1,-1,-1,-1,-1,-1],"split_conditions":[4.3E0,3.4E0,5E0,5.3E1,6.2E1,6.4E1,6.2E1,8.71149E-3,6.7737475E-2,-5.9300507E-3,2.136385E-2,-2.388442E-2,-1.2488943E-2,-2.5489524E-2,2.9221017E-2],"split_indices":[6,6,6,1,1,1,1,0,0,0,0,0,0,0,0],"split_type":[0,0,0,0,0,0,0,0,0,0,0,0,0,0,0],"sum_hessian":[9.253126E1,3.018426E1,6.2346996E1,6.4672446E0,2.3717016E1,5.807392E1,4.273077E0,1.5303795E0,4.936865E0,1.0964706E1,1.2752309E1,4.024151E1,1.783241E1,2.0902514E0,2.1828258E0],"tree_param":{"num_deleted":"0","num_feature":"7","num_nodes":"15","size_leaf_vector":"1"}},{"base_weights":[5.5648576E-2,-3.9174494E-1,3.9351007E-1,9.127705E-1,-5.6667393E-1,8.0699074E-1,-1.8584952E-1,-2.800418E-2,6.393466E-2,-3.3648264E-2,-1.2883814E-2,-7.024372E-3,3.0312935E-2,2.6584066E-2,-1.2347932E-2],"categories":[],"categories_nodes":[],"categories_segments":[],"categories_sizes":[],"default_left":[0,0,0,0,0,0,0,0,0,0,0,0,0,0,0],"id":16,"left_children":[1,3,5,7,9,11,13,-1,-1,-1,-1,-1,-1,-1,-1],"loss_changes":[1.5816929E1,1.0805306E1,1.4411874E1,1.4842087E1,2.592289E0,7.6347046E0,6.5615883E0,0E0,0E0,0E0,0E0,0E0,0E0,0E0,0E0],"parents":[2147483647,0,0,1,1,2,2,3,3,4,4,5,5,6,6],"right_children":[2,4,6,8,10,12,14,-1,-1,-1,-1,-1,-1,-1,-1],"split_conditions":[5.8E1,9.6E1,1.9E2,7.5E1,1.55E2,6.1E1,6.1E1,-2.800418E-2,6.393466E-2,-3.3648264E-2,-1.2883814E-2,-7.024372E-3,3.0312935E-2,2.6584066E-2,-1.2347932E-2],"split_indices":[1,5,5,5,5,1,1,0,0,0,0,0,0,0,0],"split_type":[0,0,0,0,0,0,0,0,0,0,0,0,0,0,0],"sum_hessian":[1.0261922E2,4.4084023E1,5.8535194E1,4.7137504E0,3.937027E1,3.392821E1,2.4606983E1,1.9669843E0,2.746766E0,6.382642E0,3.298763E1,5.521285E0,2.8406927E1,3.7716494E0,2.0835333E1],"tree_param":{"num_deleted":"0","num_feature":"7","num_nodes":"15","size_leaf_vector":"1"}},{"base_weights":[-3.1778815E-1,-6.520635E-1,2.2821671E-1,-2.297377E-2,2.8643047E-2,-1.6924644E-2,5.0327015E-1,1.1307019E-2,2.8608138E-2],"categories":[],"categories_nodes":[],"categories_segments":[],"categories_sizes":[],"default_left":[0,0,0,0,0,0,0,0,0],"id":17,"left_children":[1,3,5,-1,-1,-1,7,-1,-1],"loss_changes":[1.7421772E1,1.1505642E1,8.277773E0,0E0,0E0,0E0,1.2201185E0,0E0,0E0],"parents":[2147483647,0,0,1,1,2,2,6,6],"right_children":[2,4,6,-1,-1,-1,8,-1,-1],"split_conditions":[1E0,1E0,1E0,-2.297377E-2,2.8643047E-2,-1.6924644E-2,1E0,1.1307019E-2,2.8608138E-2],"split_indices":[3,2,0,0,0,0,2,0,0],"split_type":[0,0,0,0,0,0,0,0,0],"sum_hessian":[9.363809E1,5.7959724E1,3.567837E1,5.461741E1,3.3423152E0,8.922742E0,2.6755629E1,2.2327253E1,4.428374E0],"tree_param":{"num_deleted":"0","num_feature":"7","num_nodes":"9","size_leaf_vector":"1"}},{"base_weights":[-1.2012433E-1,3.6346486E-1,-5.829309E-1,-8.980789E-2,1.181133E0,-7.992378E-1,-2.2460164E-1,3.2052837E-2,-2.2715202E-2,5.433146E-2,1.4414909E-2,-1.6713904E-2,-3.381286E-2,4.894061E-2,-1.4432827E-2],"categories":[],"categories_nodes":[],"categories_segments":[],"categories_sizes":[],"default_left":[0,0,0,0,0,0,0,0,0,0,0,0,0,0,0],"id":18,"left_children":[1,3,5,7,9,11,13,-1,-1,-1,-1,-1,-1,-1,-1],"loss_changes":[2.0242464E1,1.6555489E1,3.3949127E0,2.3598547E1,6.1468887E0,1.6236706E0,9.7106085E0,0E0,0E0,0E0,0E0,0E0,0E0,0E0,0E0],"parents":[2147483647,0,0,1,1,2,2,3,3,4,4,5,5,6,6],"right_children":[2,4,6,8,10,12,14,-1,-1,-1,-1,-1,-1,-1,-1],"split_conditions":[1.9E2,1.72E2,2.41E2,1.14E2,1.78E2,2.2E2,2.44E2,3.2052837E-2,-2.2715202E-2,5.433146E-2,1.4414909E-2,-1.6713904E-2,-3.381286E-2,4.894061E-2,-1.4432827E-2],"split_indices":[5,5,5,5,5,5,5,0,0,0,0,0,0,0,0],"split_type":[0,0,0,0,0,0,0,0,0,0,0,0,0,0,0],"sum_hessian":[8.849888E1,4.33827E1,4.5116177E1,2.848324E1,1.4899463E1,2.7366081E1,1.7750097E1,1.0192625E1,1.8290615E1,7.0111423E0,7.88832E0,1.7294327E1,1.0071754E1,1.5043719E0,1.6245726E1],"tree_param":{"num_deleted":"0","num_feature":"7","num_nodes":"15","size_leaf_vector":"1"}},{"base_weights":[7.011075E-2,1.2874821E0,-1.7865473E-1,1.484494E0,3.8377655E-1,-8.595065E-2,-3.1942714E-2,5.2396845E-2,1.4018736E-2,-2.1045165E-2,3.0319074E-2,-1.7301148E-2,2.4296537E-3],"categories":[],"categories_nodes":[],"categories_segments":[],"categories_sizes":[],"default_left":[0,0,0,0,0,0,0,0,0,0,0,0,0],"id":19,"left_children":[1,3,5,7,9,11,-1,-1,-1,-1,-1,-1,-1],"loss_changes":[2.8049227E1,2.2270012E0,6.2462234E0,2.5288658E0,3.5392368E0,5.857998E0,0E0,0E0,0E0,0E0,0E0,0E0,0E0],"parents":[2147483647,0,0,1,1,2,2,3,3,4,4,5,5],"right_children":[2,4,6,8,10,12,-1,-1,-1,-1,-1,-1,-1],"split_conditions":[1.16E2,6.5E1,2.88E2,9.9E1,9.9E1,1.67E2,-3.1942714E-2,5.2396845E-2,1.4018736E-2,-2.1045165E-2,3.0319074E-2,-1.7301148E-2,2.4296537E-3],"split_indices":[5,1,5,5,5,5,0,0,0,0,0,0,0],"split_type":[0,0,0,0,0,0,0,0,0,0,0,0,0],"sum_hessian":[9.086109E1,1.4708303E1,7.615279E1,1.1548094E1,3.1602094E0,6.993335E1,6.219433E0,8.612249E0,2.9358451E0,1.1134365E0,2.046773E0,1.7127808E1,5.2805546E1],"tree_param":{"num_deleted":"0","num_feature":"7","num_nodes":"13","size_leaf_vector":"1"}},{"base_weights":[-2.7349105E-1,9.762135E-1,-4.645999E-1,4.008259E-2,4.674786E-1,-1.3272667E-1,-8.349443E-1,2.4914572E-2,-4.444575E-3,1.0745475E-2,-1.7388301E-2,-3.3363644E-2,-6.918119E-5],"categories":[],"categories_nodes":[],"categories_segments":[],"categories_sizes":[],"default_left":[0,0,0,0,0,0,0,0,0,0,0,0,0],"id":20,"left_children":[1,3,5,-1,7,9,11,-1,-1,-1,-1,-1,-1],"loss_changes":[2.3192986E1,1.7465353E0,1.0122526E1,0E0,1.6659468E0,1.0101617E1,9.03524E0,0E0,0E0,0E0,0E0,0E0,0E0],"parents":[2147483647,0,0,1,1,2,2,4,4,5,5,6,6],"right_children":[2,4,6,-1,8,10,12,-1,-1,-1,-1,-1,-1],"split_conditions":[3.9E0,1E0,4.46E0,4.008259E-2,3.3E0,1.9E2,2.38E2,2.4914572E-2,-4.444575E-3,1.0745475E-2,-1.7388301E-2,-3.3363644E-2,-6.918119E-5],"split_indices":[6,3,6,0,6,5,5,0,0,0,0,0,0],"split_type":[0,0,0,0,0,0,0,0,0,0,0,0,0],"sum_hessian":[9.421196E1,1.1951328E1,8.226063E1,6.0472717E0,5.9040565E0,4.4100056E1,3.8160576E1,3.4945152E0,2.4095416E0,2.1109446E1,2.2990608E1,2.8378117E1,9.782458E0],"tree_param":{"num_deleted":"0","num_feature":"7","num_nodes":"13","size_leaf_vector":"1"}},{"base_weights":[2.078526E-2,-3.3427414E-1,7.939507E-1,-5.1926064E-1,1.9613147E-1,9.1222495E-1,-2.4475055E-2,-1.1720811E-2,-3.3196185E-2,1.474464E-2,-2.7933456E-2,7.065886E-3,4.043361E-2],"categories":[],"categories_nodes":[],"categories_segments":[],"categories_sizes":[],"default_left":[0,0,0,0,0,0,0,0,0,0,0,0,0],"id":21,"left_children":[1,3,5,7,9,11,-1,-1,-1,-1,-1,-1,-1],"loss_changes":[2.524593E1,6.2895055E0,6.253088E0,3.118719E0,6.128544E0,7.7660217E0,0E0,0E0,0E0,0E0,0E0,0E0,0E0],"parents":[2147483647,0,0,1,1,2,2,3,3,4,4,5,5],"right_children":[2,4,6,8,10,12,-1,-1,-1,-1,-1,-1,-1],"split_conditions":[1E0,6.6E1,7.3E1,6.3E1,7.7E1,6.1E1,-2.4475055E-2,-1.1720811E-2,-3.3196185E-2,1.474464E-2,-2.7933456E-2,7.065886E-3,4.043361E-2],"split_indices":[4,1,1,1,1,1,0,0,0,0,0,0,0],"split_type":[0,0,0,0,0,0,0,0,0,0,0,0,0],"sum_hessian":[8.999724E1,6.2063557E1,2.7933681E1,4.6030704E1,1.6032852E1,2.6425474E1,1.5082085E0,3.91297E1,6.9010053E0,1.3151058E1,2.881794E0,1.0951626E1,1.5473847E1],"tree_param":{"num_deleted":"0","num_feature":"7","num_nodes":"13","size_leaf_vector":"1"}},{"base_weights":[-1.2078387E-1,-6.807655E-1,2.4557793E-1,-3.0128045E-2,-3.7876645E-1,4.1613233E-1,-3.2607213E-2,2.1035638E-2,-2.4352802E-2,6.748975E-3,4.714982E-2],"categories":[],"categories_nodes":[],"categories_segments":[],"categories_sizes":[],"default_left":[0,0,0,0,0,0,0,0,0,0,0],"id":22,"left_children":[1,3,5,-1,7,9,-1,-1,-1,-1,-1],"loss_changes":[1.944132E1,3.275568E0,1.3526096E1,0E0,1.0370064E1,1.10719385E1,0E0,0E0,0E0,0E0,0E0],"parents":[2147483647,0,0,1,1,2,2,4,4,5,5],"right_children":[2,4,6,-1,8,10,-1,-1,-1,-1,-1],"split_conditions":[5.7E1,5E1,7.4E1,-3.0128045E-2,5.2E1,1E0,-3.2607213E-2,2.1035638E-2,-2.4352802E-2,6.748975E-3,4.714982E-2],"split_indices":[1,1,1,0,1,2,0,0,0,0,0],"split_type":[0,0,0,0,0,0,0,0,0,0,0],"sum_hessian":[9.294876E1,3.6421127E1,5.652763E1,1.6461786E1,1.9959341E1,5.072294E1,5.804693E0,5.5349374E0,1.4424403E1,4.4547794E1,6.175142E0],"tree_param":{"num_deleted":"0","num_feature":"7","num_nodes":"11","size_leaf_vector":"1"}},{"base_weights":[2.5846466E-2,-3.279957E-1,7.114911E-1,-5.150111E-1,-2.0606527E-1,1.5224504E-1,9.818092E-1,-1.2801105E-2,-2.0534953E-2,-8.188728E-3,-3.0536894E-3,8.593498E-3,-7.2511835E-3,1.4205256E-2,4.1324656E-2],"categories":[],"categories_nodes":[],"categories_segments":[],"categories_sizes":[],"default_left":[0,0,0,0,0,0,0,0,0,0,0,0,0,0,0],"id":23,"left_children":[1,3,5,7,9,11,13,-1,-1,-1,-1,-1,-1,-1,-1],"loss_changes":[2.5434608E1,1.4718475E0,5.2436485E0,1.06705666E-1,2.7603292E-1,7.4641764E-1,4.147871E0,0E0,0E0,0E0,0E0,0E0,0E0,0E0,0E0],"parents":[2147483647,0,0,1,1,2,2,3,3,4,4,5,5,6,6],"right_children":[2,4,6,8,10,12,14,-1,-1,-1,-1,-1,-1,-1,-1],"split_conditions":[1E0,1E0,1E0,1E0,1E0,1E0,1E0,-1.2801105E-2,-2.0534953E-2,-8.188728E-3,-3.0536894E-3,8.593498E-3,-7.2511835E-3,1.4205256E-2,4.1324656E-2],"split_indices":[4,0,0,3,3,3,3,0,0,0,0,0,0,0,0],"split_type":[0,0,0,0,0,0,0,0,0,0,0,0,0,0,0],"sum_hessian":[1.0287555E2,6.820069E1,3.467486E1,2.5644167E1,4.2556522E1,1.1808375E1,2.2866482E1,1.917242E1,6.471747E0,2.493998E1,1.7616543E1,9.011398E0,2.796977E0,1.0970357E1,1.1896126E1],"tree_param":{"num_deleted":"0","num_feature":"7","num_nodes":"15","size_leaf_vector":"1"}},{"base_weights":[-1.006327E-1,7.156789E-1,-5.0873125E-1,1.186987E-1,4.0213495E-2,-8.9717937E-1,-2.9501894E-1,2.6592748E-2,-7.260181E-3,-2.9191565E-2,-1.573826E-2,3.9977884E-5,-1.8129937E-2],"categories":[],"categories_nodes":[],"categories_segments":[],"categories_sizes":[],"default_left":[0,0,0,0,0,0,0,0,0,0,0,0,0],"id":24,"left_children":[1,3,5,7,-1,9,11,-1,-1,-1,-1,-1,-1],"loss_changes":[3.1280975E1,1.1532881E1,4.920328E0,4.957539E0,0E0,1.0229111E-1,3.8306627E0,0E0,0E0,0E0,0E0,0E0,0E0],"parents":[2147483647,0,0,1,1,2,2,3,3,5,5,6,6],"right_children":[2,4,6,8,-1,10,12,-1,-1,-1,-1,-1,-1],"split_conditions":[4.3E0,1E0,1E0,3.8E0,4.0213495E-2,1E0,4.59E0,2.6592748E-2,-7.260181E-3,-2.9191565E-2,-1.573826E-2,3.9977884E-5,-1.8129937E-2],"split_indices":[6,3,0,6,0,3,6,0,0,0,0,0,0],"split_type":[0,0,0,0,0,0,0,0,0,0,0,0,0],"sum_hessian":[9.180573E1,3.0347841E1,6.145789E1,1.6127604E1,1.4220236E1,2.0676947E1,4.0780945E1,4.6893277E0,1.1438276E1,1.5839548E1,4.837399E0,2.1335314E1,1.9445631E1],"tree_param":{"num_deleted":"0","num_feature":"7","num_nodes":"13","size_leaf_vector":"1"}},{"base_weights":[-1.7698506E-1,1.116288E0,-4.0607083E-1,1.3656124E0,-2.1614766E-2,4.0628765E-2,-7.658291E-1,1.1804677E-2,4.8527446E-2,-1.4209119E-2,2.9854415E-2,-2.5527464E-2,-4.736459E-3],"categories":[],"categories_nodes":[],"categories_segments":[],"categories_sizes":[],"default_left":[0,0,0,0,0,0,0,0,0,0,0,0,0],"id":25,"left_children":[1,3,5,7,-1,9,11,-1,-1,-1,-1,-1,-1],"loss_changes":[2.5985115E1,7.044836E0,1.1913983E1,2.3024464E0,0E0,1.7129328E1,1.9868927E0,0E0,0E0,0E0,0E0,0E0,0E0],"parents":[2147483647,0,0,1,1,2,2,3,3,5,5,6,6],"right_children":[2,4,6,8,-1,10,12,-1,-1,-1,-1,-1,-1],"split_conditions":[3.9E0,2.16E2,1.87E2,8.6E1,-2.1614766E-2,1.69E2,1E0,1.1804677E-2,4.8527446E-2,-1.4209119E-2,2.9854415E-2,-2.5527464E-2,-4.736459E-3],"split_indices":[6,5,5,5,0,5,4,0,0,0,0,0,0],"split_type":[0,0,0,0,0,0,0,0,0,0,0,0,0],"sum_hessian":[8.517743E1,1.2234786E1,7.294264E1,1.0998384E1,1.2364013E0,3.29352E1,4.0007446E1,2.7912214E0,8.207163E0,2.1730986E1,1.1204213E1,3.474499E1,5.2624564E0],"tree_param":{"num_deleted":"0","num_feature":"7","num_nodes":"13","size_leaf_vector":"1"}},{"base_weights":[-6.4379215E-2,-5.058878E-1,7.6985514E-1,-2.3148368E-1,-6.303999E-1,1.4807928E0,6.986735E-2,-2.2520868E-2,2.2969158E-2,-3.4634795E-2,-1.0145187E-2,3.1775143E-2,5.4993693E-2,-1.3938794E-2,2.8936895E-2],"categories":[],"categories_nodes":[],"categories_segments":[],"categories_sizes":[],"default_left":[0,0,0,0,0,0,0,0,0,0,0,0,0,0,0],"id":26,"left_children":[1,3,5,7,9,11,13,-1,-1,-1,-1,-1,-1,-1,-1],"loss_changes":[3.4938946E1,1.9704485E0,1.6249075E1,1.1402436E1,6.0464363E0,4.7276306E-1,8.867928E0,0E0,0E0,0E0,0E0,0E0,0E0,0E0,0E0],"parents":[2147483647,0,0,1,1,2,2,3,3,4,4,5,5,6,6],"right_children":[2,4,6,8,10,12,14,-1,-1,-1,-1,-1,-1,-1,-1],"split_conditions":[1E0,1.82E2,1.33E2,1.73E2,2.15E2,6.4E1,6.3E1,-2.2520868E-2,2.2969158E-2,-3.4634795E-2,-1.0145187E-2,3.1775143E-2,5.4993693E-2,-1.3938794E-2,2.8936895E-2],"split_indices":[4,5,5,5,5,1,1,0,0,0,0,0,0,0,0],"split_type":[0,0,0,0,0,0,0,0,0,0,0,0,0,0,0],"sum_hessian":[9.280248E1,6.0942818E1,3.185967E1,1.9914238E1,4.102858E1,1.5252809E1,1.6606861E1,1.3257866E1,6.6563706E0,1.3631159E1,2.739742E1,8.767382E0,6.4854264E0,1.06970825E1,5.9097795E0],"tree_param":{"num_deleted":"0","num_feature":"7","num_nodes":"15","size_leaf_vector":"1"}},{"base_weights":[-7.939167E-3,-3.476919E-1,6.4575815E-1,-1.9518765E-2,-1.7477351E-1,1.1502847E-2,2.2252247E-2,-5.6388252E-3,1.4522244E-3],"categories":[],"categories_nodes":[],"categories_segments":[],"categories_sizes":[],"default_left":[0,0,0,0,0,0,0,0,0],"id":27,"left_children":[1,3,5,-1,7,-1,-1,-1,-1],"loss_changes":[2.173355E1,3.2584457E0,5.58362E-1,0E0,1.3373995E-1,0E0,0E0,0E0,0E0],"parents":[2147483647,0,0,1,1,2,2,4,4],"right_children":[2,4,6,-1,8,-1,-1,-1,-1],"split_conditions":[1E0,1E0,1E0,-1.9518765E-2,1E0,1.1502847E-2,2.2252247E-2,-5.6388252E-3,1.4522244E-3],"split_indices":[4,0,0,0,2,0,0,0,0],"split_type":[0,0,0,0,0,0,0,0,0],"sum_hessian":[9.5845856E1,6.3375286E1,3.2470566E1,2.202585E1,4.1349438E1,1.0036044E1,2.2434523E1,3.9191498E1,2.1579394E0],"tree_param":{"num_deleted":"0","num_feature":"7","num_nodes":"9","size_leaf_vector":"1"}},{"base_weights":[-1.6565518E-1,8.112642E-1,-4.006625E-1,9.4333015E-2,1.5245054E0,-8.526201E-1,-2.424346E-1,2.4037626E-2,-1.965519E-2,5.9862476E-2,-2.2993853E-2,-6.7102985E-4,-3.4053046E-2,-1.4462137E-2,4.458652E-3],"categories":[],"categories_nodes":[],"categories_segments":[],"categories_sizes":[],"default_left":[0,0,0,0,0,0,0,0,0,0,0,0,0,0,0],"id":28,"left_children":[1,3,5,7,9,11,13,-1,-1,-1,-1,-1,-1,-1,-1],"loss_changes":[2.17964E1,9.298627E0,5.2323294E0,5.9691267E0,1.144482E1,4.5069666E0,5.481806E0,0E0,0E0,0E0,0E0,0E0,0E0,0E0,0E0],"parents":[2147483647,0,0,1,1,2,2,3,3,4,4,5,5,6,6],"right_children":[2,4,6,8,10,12,14,-1,-1,-1,-1,-1,-1,-1,-1],"split_conditions":[1.34E2,6.1E1,5.3E1,5.2E1,7E1,1.75E2,1E0,2.4037626E-2,-1.965519E-2,5.9862476E-2,-2.2993853E-2,-6.7102985E-4,-3.4053046E-2,-1.4462137E-2,4.458652E-3],"split_indices":[5,1,1,1,1,5,3,0,0,0,0,0,0,0,0],"split_type":[0,0,0,0,0,0,0,0,0,0,0,0,0,0,0],"sum_hessian":[9.252321E1,1.7465887E1,7.505732E1,9.275081E0,8.190805E0,1.83252E1,5.6732124E1,4.7376075E0,4.5374727E0,6.9012537E0,1.2895522E0,4.926045E0,1.3399153E1,3.503201E1,2.1700113E1],"tree_param":{"num_deleted":"0","num_feature":"7","num_nodes":"15","size_leaf_vector":"1"}},{"base_weights":[1.8692952E-2,1.5574834E0,-2.5112507E-1,5.433764E-1,5.2246876E-2,8.689973E-2,-5.805286E-1,2.2169495E-2,5.6392327E-3,8.251733E-3,-1.5700763E-2,-4.234931E-3,-2.5099533E-2],"categories":[],"categories_nodes":[],"categories_segments":[],"categories_sizes":[],"default_left":[0,0,0,0,0,0,0,0,0,0,0,0,0],"id":29,"left_children":[1,3,5,7,-1,9,11,-1,-1,-1,-1,-1,-1],"loss_changes":[4.0572315E1,1.7747688E0,9.314535E0,1.1781824E-1,0E0,4.9588776E0,4.638335E0,0E0,0E0,0E0,0E0,0E0,0E0],"parents":[2147483647,0,0,1,1,2,2,3,3,5,5,6,6],"right_children":[2,4,6,8,-1,10,12,-1,-1,-1,-1,-1,-1],"split_conditions":[3.8E0,1E0,4.46E0,1.16E2,5.2246876E-2,2.33E2,1.78E2,2.2169495E-2,5.6392327E-3,8.251733E-3,-1.5700763E-2,-4.234931E-3,-2.5099533E-2],"split_indices":[6,0,6,5,0,5,5,0,0,0,0,0,0],"split_type":[0,0,0,0,0,0,0,0,0,0,0,0,0],"sum_hessian":[9.577706E1,1.3576575E1,8.2200485E1,2.6929197E0,1.0883656E1,4.0932686E1,4.1267796E1,1.040796E0,1.6521238E0,3.1706156E1,9.226531E0,1.5768665E1,2.549913E1],"tree_param":{"num_deleted":"0","num_feature":"7","num_nodes":"13","size_leaf_vector":"1"}},{"base_weights":[1.2808116E-1,-4.267404E-1,9.543983E-1,7.751103E-1,-5.6545836E-1,1.4785365E0,2.4842238E-1,3.1823092E-3,3.1806324E-2,-2.3571646E-2,-1.3270599E-2,4.9762335E-2,2.5981143E-2,-2.3884783E-2,1.1778449E-2],"categories":[],"categories_nodes":[],"categories_segments":[],"categories_sizes":[],"default_left":[0,0,0,0,0,0,0,0,0,0,0,0,0,0,0],"id":30,"left_children":[1,3,5,7,9,11,13,-1,-1,-1,-1,-1,-1,-1,-1],"loss_changes":[4.3861984E1,1.0007795E1,1.3836296E1,1.1009026E0,1.0634708E0,9.727402E-1,2.9570994E0,0E0,0E0,0E0,0E0,0E0,0E0,0E0,0E0],"parents":[2147483647,0,0,1,1,2,2,3,3,4,4,5,5,6,6],"right_children":[2,4,6,8,10,12,14,-1,-1,-1,-1,-1,-1,-1,-1],"split_conditions":[1E0,3.94E0,4.3E0,3.7E0,1E0,4.1E0,4.39E0,3.1823092E-3,3.1806324E-2,-2.3571646E-2,-1.3270599E-2,4.9762335E-2,2.5981143E-2,-2.3884783E-2,1.1778449E-2],"split_indices":[4,6,6,6,0,6,6,0,0,0,0,0,0,0,0],"split_type":[0,0,0,0,0,0,0,0,0,0,0,0,0,0,0],"sum_hessian":[9.378436E1,5.639926E1,3.73851E1,5.3613043E0,5.1037956E1,2.0827679E1,1.6557423E1,2.0119698E0,3.3493347E0,1.6368471E1,3.4669487E1,1.47730255E1,6.054653E0,1.4598991E0,1.5097525E1],"tree_param":{"num_deleted":"0","num_feature":"7","num_nodes":"15","size_leaf_vector":"1"}},{"base_weights":[7.061639E-2,1.3869638E0,-2.6587766E-1,1.5529029E0,1.7415669E-2,3.0478582E-1,-4.2757586E-1,8.850726E-3,4.966546E-2,1.5631432E-2,-2.544067E-2,8.591136E-3,-1.7879626E-2],"categories":[],"categories_nodes":[],"categories_segments":[],"categories_sizes":[],"default_left":[0,0,0,0,0,0,0,0,0,0,0,0,0],"id":31,"left_children":[1,3,5,7,-1,9,11,-1,-1,-1,-1,-1,-1],"loss_changes":[4.24757E1,1.709877E0,7.193777E0,1.5234451E0,0E0,4.80097E0,7.392461E0,0E0,0E0,0E0,0E0,0E0,0E0],"parents":[2147483647,0,0,1,1,2,2,3,3,5,5,6,6],"right_children":[2,4,6,8,-1,10,12,-1,-1,-1,-1,-1,-1],"split_conditions":[3.94E0,3.8E0,4.3E0,6.5E1,1.7415669E-2,2.33E2,1.49E2,8.850726E-3,4.966546E-2,1.5631432E-2,-2.544067E-2,8.591136E-3,-1.7879626E-2],"split_indices":[6,6,6,5,0,5,5,0,0,0,0,0,0],"split_type":[0,0,0,0,0,0,0,0,0,0,0,0,0],"sum_hessian":[9.406173E1,1.851402E1,7.554771E1,1.4586895E1,3.9271257E0,1.6484804E1,5.9062904E1,1.3924627E0,1.3194432E1,1.4342275E1,2.1425307E0,1.1139377E1,4.7923527E1],"tree_param":{"num_deleted":"0","num_feature":"7","num_nodes":"13","size_leaf_vector":"1"}},{"base_weights":[2.702579E-2,8.1424266E-1,-2.6851398E-1,3.3973056E-1,1.3434916E0,-9.406855E-1,-1.3628185E-1,1.6680233E-2,-2.442865E-2,2.7935017E-2,5.973562E-2,-3.3000253E-2,-1.2064613E-2,4.568219E-2,-7.90967E-3],"categories":[],"categories_nodes":[],"categories_segments":[],"categories_sizes":[],"default_left":[0,0,0,0,0,0,0,0,0,0,0,0,0,0,0],"id":32,"left_children":[1,3,5,7,9,11,13,-1,-1,-1,-1,-1,-1,-1,-1],"loss_changes":[2.3192902E1,6.3748417E0,6.3199835E0,4.366519E0,1.489645E0,5.663204E-1,1.3458872E1,0E0,0E0,0E0,0E0,0E0,0E0,0E0,0E0],"parents":[2147483647,0,0,1,1,2,2,3,3,4,4,5,5,6,6],"right_children":[2,4,6,8,10,12,14,-1,-1,-1,-1,-1,-1,-1,-1],"split_conditions":[1.49E2,1E0,1.72E2,1.43E2,1.3E2,1E0,1.76E2,1.6680233E-2,-2.442865E-2,2.7935017E-2,5.973562E-2,-3.3000253E-2,-1.2064613E-2,4.568219E-2,-7.90967E-3],"split_indices":[5,3,5,5,5,3,5,0,0,0,0,0,0,0,0],"split_type":[0,0,0,0,0,0,0,0,0,0,0,0,0,0,0],"sum_hessian":[9.774869E1,2.6201567E1,7.154712E1,1.4680914E1,1.1520652E1,1.0756259E1,6.0790863E1,1.2800199E1,1.8807149E0,8.528839E0,2.9918132E0,7.4959874E0,3.2602715E0,3.5534115E0,5.723745E1],"tree_param":{"num_deleted":"0","num_feature":"7","num_nodes":"15","size_leaf_vector":"1"}},{"base_weights":[-4.78013E-2,4.1481167E-1,-5.735725E-1,3.424986E-2,8.4805536E-1,4.83047E-1,-7.052965E-1,2.710806E-2,-8.136494E-3,4.4165123E-2,6.692013E-3,-2.4596548E-2,3.680555E-2,-1.448904E-2,-3.315558E-2],"categories":[],"categories_nodes":[],"categories_segments":[],"categories_sizes":[],"default_left":[0,0,0,0,0,0,0,0,0,0,0,0,0,0,0],"id":33,"left_children":[1,3,5,7,9,11,13,-1,-1,-1,-1,-1,-1,-1,-1],"loss_changes":[2.1962217E1,7.900201E0,6.2175455E0,7.3208065E0,8.427538E0,6.1169806E0,2.8402672E0,0E0,0E0,0E0,0E0,0E0,0E0,0E0,0E0],"parents":[2147483647,0,0,1,1,2,2,3,3,4,4,5,5,6,6],"right_children":[2,4,6,8,10,12,14,-1,-1,-1,-1,-1,-1,-1,-1],"split_conditions":[1.86E2,6.2E1,3.9E0,4.8E1,4.3E0,6.7E1,2.44E2,2.710806E-2,-8.136494E-3,4.4165123E-2,6.692013E-3,-2.4596548E-2,3.680555E-2,-1.448904E-2,-3.315558E-2],"split_indices":[5,1,6,1,6,1,5,0,0,0,0,0,0,0,0],"split_type":[0,0,0,0,0,0,0,0,0,0,0,0,0,0,0],"sum_hessian":[8.831636E1,4.7092175E1,4.122419E1,2.5644802E1,2.1447372E1,4.2739253E0,3.6950264E1,6.158814E0,1.9485989E1,1.0052947E1,1.1394425E1,1.5160161E0,2.7579093E0,2.5166227E1,1.1784035E1],"tree_param":{"num_deleted":"0","num_feature":"7","num_nodes":"15","size_leaf_vector":"1"}},{"base_weights":[-5.3035446E-2,2.3146723E-1,-4.1563287E-1,-8.669984E-2,7.266265E-1,6.785037E-1,-5.779443E-1,1.7703518E-2,-2.0294813E-2,1.4505765E-3,6.466057E-2,3.878691E-2,-2.01801E-2,-1.9746788E-2,-3.1244012E-3],"categories":[],"categories_nodes":[],"categories_segments":[],"categories_sizes":[],"default_left":[0,0,0,0,0,0,0,0,0,0,0,0,0,0,0],"id":34,"left_children":[1,3,5,7,9,11,13,-1,-1,-1,-1,-1,-1,-1,-1],"loss_changes":[9.031283E0,7.810302E0,7.2184014E0,1.2706783E1,1.8641186E1,5.3737073E0,1.2251997E0,0E0,0E0,0E0,0E0,0E0,0E0,0E0,0E0],"parents":[2147483647,0,0,1,1,2,2,3,3,4,4,5,5,6,6],"right_children":[2,4,6,8,10,12,14,-1,-1,-1,-1,-1,-1,-1,-1],"split_conditions":[1.94E2,1.72E2,4.3E1,1.34E2,6.9E1,2.77E2,7.1E1,1.7703518E-2,-2.0294813E-2,1.4505765E-3,6.466057E-2,3.878691E-2,-2.01801E-2,-1.9746788E-2,-3.1244012E-3],"split_indices":[5,5,1,5,1,5,1,0,0,0,0,0,0,0,0],"split_type":[0,0,0,0,0,0,0,0,0,0,0,0,0,0,0],"sum_hessian":[8.561384E1,4.8175682E1,3.743816E1,2.983193E1,1.834375E1,4.42553E0,3.301263E1,1.3890901E1,1.5941029E1,1.3139664E1,5.204087E0,3.0718546E0,1.3536751E0,2.7896492E1,5.116137E0],"tree_param":{"num_deleted":"0","num_feature":"7","num_nodes":"15","size_leaf_vector":"1"}},{"base_weights":[6.4165E-2,6.835864E-1,-3.5290015E-1,1.1827959E0,3.6187285E-1,-4.2819133E-1,2.5715442E-2,4.661803E-3,3.9231982E-2,-2.3915914E-3,1.5992574E-2,-1.4087798E-2,2.1288496E-2],"categories":[],"categories_nodes":[],"categories_segments":[],"categories_sizes":[],"default_left":[0,0,0,0,0,0,0,0,0,0,0,0,0],"id":35,"left_children":[1,3,5,7,9,11,-1,-1,-1,-1,-1,-1,-1],"loss_changes":[2.2493738E1,5.193144E0,5.117096E0,1.5008526E0,1.7606444E0,2.676794E0,0E0,0E0,0E0,0E0,0E0,0E0,0E0],"parents":[2147483647,0,0,1,1,2,2,3,3,4,4,5,5],"right_children":[2,4,6,8,10,12,-1,-1,-1,-1,-1,-1,-1],"split_conditions":[4.3E0,3.9E0,1E0,2.9E0,4.1E0,5.1E0,2.5715442E-2,4.661803E-3,3.9231982E-2,-2.3915914E-3,1.5992574E-2,-1.4087798E-2,2.1288496E-2],"split_indices":[6,6,2,6,6,6,0,0,0,0,0,0,0],"split_type":[0,0,0,0,0,0,0,0,0,0,0,0,0],"sum_hessian":[8.5136795E1,3.4000507E1,5.1136288E1,1.2275623E1,2.1724886E1,4.8749256E1,2.387029E0,1.574197E0,1.0701426E1,6.2190614E0,1.5505824E1,4.760434E1,1.1449193E0],"tree_param":{"num_deleted":"0","num_feature":"7","num_nodes":"13","size_leaf_vector":"1"}},{"base_weights":[1.9274643E-2,-1.8686557E-1,4.4856164E-1,-3.563269E-1,-8.413574E-2,1.13367274E-1,6.503329E-1,-4.72016E-3,-2.953439E-2,-4.770701E-3,8.772116E-4,7.7863596E-3,-8.657127E-3,1.3367632E-2,2.4368737E-2],"categories":[],"categories_nodes":[],"categories_segments":[],"categories_sizes":[],"default_left":[0,0,0,0,0,0,0,0,0,0,0,0,0,0,0],"id":36,"left_children":[1,3,5,7,9,11,13,-1,-1,-1,-1,-1,-1,-1,-1],"loss_changes":[7.964591E0,1.029697E0,1.9001021E0,2.6780496E0,3.3752653E-1,7.9038537E-1,2.3516893E-1,0E0,0E0,0E0,0E0,0E0,0E0,0E0,0E0],"parents":[2147483647,0,0,1,1,2,2,3,3,4,4,5,5,6,6],"right_children":[2,4,6,8,10,12,14,-1,-1,-1,-1,-1,-1,-1,-1],"split_conditions":[1E0,1E0,1E0,1E0,1E0,1E0,1E0,-4.72016E-3,-2.953439E-2,-4.770701E-3,8.772116E-4,7.7863596E-3,-8.657127E-3,1.3367632E-2,2.4368737E-2],"split_indices":[4,0,0,3,3,3,3,0,0,0,0,0,0,0,0],"split_type":[0,0,0,0,0,0,0,0,0,0,0,0,0,0,0],"sum_hessian":[8.8054985E1,5.98704E1,2.8184584E1,2.1664473E1,3.820593E1,1.1177583E1,1.7007002E1,1.740222E1,4.262253E0,2.2765898E1,1.544003E1,8.4564E0,2.7211828E0,9.168094E0,7.8389072E0],"tree_param":{"num_deleted":"0","num_feature":"7","num_nodes":"15","size_leaf_vector":"1"}},{"base_weights":[-8.161024E-2,5.0350356E-1,-3.1612763E-1,1.9561276E-2,1.099236E0,-8.564152E-1,-2.0210344E-1,-2.9302666E-2,6.08613E-3,9.688614E-3,3.8886216E-2,-1.302515E-2,-3.1975336E-2,3.461746E-2,-1.0075484E-2],"categories":[],"categories_nodes":[],"categories_segments":[],"categories_sizes":[],"default_left":[0,0,0,0,0,0,0,0,0,0,0,0,0,0,0],"id":37,"left_children":[1,3,5,7,9,11,13,-1,-1,-1,-1,-1,-1,-1,-1],"loss_changes":[1.2569167E1,7.5500164E0,3.8421679E0,3.0306454E0,1.3785677E0,5.143194E-1,1.0385552E1,0E0,0E0,0E0,0E0,0E0,0E0,0E0,0E0],"parents":[2147483647,0,0,1,1,2,2,3,3,4,4,5,5,6,6],"right_children":[2,4,6,8,10,12,14,-1,-1,-1,-1,-1,-1,-1,-1],"split_conditions":[1.49E2,1E0,1.72E2,8.6E1,9E1,1.57E2,1.77E2,-2.9302666E-2,6.08613E-3,9.688614E-3,3.8886216E-2,-1.302515E-2,-3.1975336E-2,3.461746E-2,-1.0075484E-2],"split_indices":[5,3,5,5,5,5,5,0,0,0,0,0,0,0,0],"split_type":[0,0,0,0,0,0,0,0,0,0,0,0,0,0,0],"sum_hessian":[8.94391E1,2.5262629E1,6.4176476E1,1.4509056E1,1.0753573E1,1.0049152E1,5.4127323E1,1.5820307E0,1.2927026E1,2.710568E0,8.043005E0,4.350651E0,5.698502E0,4.1745825E0,4.995274E1],"tree_param":{"num_deleted":"0","num_feature":"7","num_nodes":"15","size_leaf_vector":"1"}},{"base_weights":[-1.7981909E-3,-4.3857348E-1,6.442403E-1,-8.471007E-1,-1.8346983E-1,9.401195E-1,-2.7846253E-1,5.85919E-3,-2.8802145E-2,2.9128708E-3,-3.163548E-2,1.1094427E-2,3.651177E-2,-1.914372E-2,8.792178E-3],"categories":[],"categories_nodes":[],"categories_segments":[],"categories_sizes":[],"default_left":[0,0,0,0,0,0,0,0,0,0,0,0,0,0,0],"id":38,"left_children":[1,3,5,7,9,11,13,-1,-1,-1,-1,-1,-1,-1,-1],"loss_changes":[2.5530743E1,5.470193E0,1.0225954E1,2.598524E0,8.535193E0,3.9508038E0,2.1672368E0,0E0,0E0,0E0,0E0,0E0,0E0,0E0,0E0],"parents":[2147483647,0,0,1,1,2,2,3,3,4,4,5,5,6,6],"right_children":[2,4,6,8,10,12,14,-1,-1,-1,-1,-1,-1,-1,-1],"split_conditions":[1E0,1E0,4.46E0,3.9E0,4.7E0,1E0,4.8E0,5.85919E-3,-2.8802145E-2,2.9128708E-3,-3.163548E-2,1.1094427E-2,3.651177E-2,-1.914372E-2,8.792178E-3],"split_indices":[4,0,6,6,6,0,6,0,0,0,0,0,0,0,0],"split_type":[0,0,0,0,0,0,0,0,0,0,0,0,0,0,0],"sum_hessian":[8.8477516E1,5.297988E1,3.549763E1,1.9473724E1,3.3506157E1,2.6864298E1,8.633335E0,1.8328441E0,1.764088E1,2.6015158E1,7.4909987E0,9.544513E0,1.7319784E1,5.2273235E0,3.4060116E0],"tree_param":{"num_deleted":"0","num_feature":"7","num_nodes":"15","size_leaf_vector":"1"}},{"base_weights":[-1.6143225E-1,6.8127745E-1,-5.438763E-1,8.4699357E-1,-2.5346499E-2,-4.9429767E-2,-7.093456E-1,1.2646609E-2,4.190337E-2,2.3290018E-2,-2.2083722E-2,-3.5415214E-2,-1.3736207E-2],"categories":[],"categories_nodes":[],"categories_segments":[],"categories_sizes":[],"default_left":[0,0,0,0,0,0,0,0,0,0,0,0,0],"id":39,"left_children":[1,3,5,7,-1,9,11,-1,-1,-1,-1,-1,-1],"loss_changes":[2.6749237E1,7.2896338E0,4.616516E0,5.0123863E0,0E0,9.264729E0,4.497839E0,0E0,0E0,0E0,0E0,0E0,0E0],"parents":[2147483647,0,0,1,1,2,2,3,3,5,5,6,6],"right_children":[2,4,6,8,-1,10,12,-1,-1,-1,-1,-1,-1],"split_conditions":[4.2E0,2.51E2,4.39E0,1.77E2,-2.5346499E-2,1.77E2,1.74E2,1.2646609E-2,4.190337E-2,2.3290018E-2,-2.2083722E-2,-3.5415214E-2,-1.3736207E-2],"split_indices":[6,5,6,5,0,5,5,0,0,0,0,0,0],"split_type":[0,0,0,0,0,0,0,0,0,0,0,0,0],"sum_hessian":[8.084792E1,2.4993576E1,5.5854343E1,2.294693E1,2.0466454E0,1.4330733E1,4.152361E1,1.3932398E1,9.014533E0,6.4472494E0,7.8834844E0,1.3164335E1,2.8359276E1],"tree_param":{"num_deleted":"0","num_feature":"7","num_nodes":"13","size_leaf_vector":"1"}}]},"name":"gbtree"},"learner_model_param":{"base_score":"2.4065518E-1","boost_from_average":"1","num_class":"0","num_feature":"7","num_target":"1"},"objective":{"name":"binary:logistic","reg_loss_param":{"scale_pos_weight":"3"}}},"version":[2,0,0]}